710 300
( 0.0050097643 -0.048957944 -0.07621107 -0.038629398 0.07051807 0.009352609 -0.10226303 -0.08241343 -0.05471577 0.1929398 0.059657652 0.07588995 0.121180706 -0.05914085 -0.016801715 -0.056670718 0.20237607 -0.009502604 -0.09931047 -0.11156566 0.005112074 -0.0980711 0.04710667 0.01909126 -0.019139677 0.031467635 -0.08517979 -0.110232495 0.035387076 -0.0749321 -0.08798996 0.08589306 -0.080623776 0.06694627 0.011413037 -0.06510976 0.10685827 -0.12808135 -0.037319444 0.014209456 0.07552855 -0.07474948 0.021745048 -0.039203588 -0.13219182 -0.09740913 0.04316513 0.008034265 0.06263683 0.0035724905 -0.039114203 -0.023031997 0.010039672 0.026160125 -0.059323173 -0.092233784 -0.035997998 -0.02718812 -0.05239584 -0.09378471 0.11417003 0.015151986 -0.078979515 -0.12849946 0.0720136 0.056252655 0.0974372 -0.19985028 -0.029651465 -0.10206849 0.028558522 0.016252391 0.06400269 -0.011501689 0.054267906 -0.027102567 -0.021359513 0.11819465 0.08856698 0.003666764 0.010145822 -0.031107161 0.091236815 0.10209743 0.04346796 0.020367673 0.0572098 -0.036419123 -0.023056757 -0.080000125 -0.10663684 -0.08504252 -0.011528062 -0.04126505 0.0038650353 -0.00590964 -0.012381393 -0.16277888 0.066412844 0.15076432 -0.04517438 -0.069648206 -0.056976102 0.0037362333 0.041417275 0.04541464 -0.095658556 0.019886658 -0.1650016 0.007003865 0.02214148 0.10660251 0.11478157 -0.008390874 0.027918788 -0.1534484 0.09784886 0.0067876726 0.013826122 -0.022191765 0.06945283 0.005962762 -0.16900215 0.07704738 -0.049703196 -0.0061713443 -0.08280166 0.06980674 0.06409417 0.119939566 0.05550326 -0.16420287 0.06724966 0.10872757 0.13981766 -0.124723874 -0.14258291 0.055885434 0.051515825 0.05119373 0.06611268 -0.13382693 -0.08247346 -0.07052557 -0.011478108 0.17249177 -0.062362064 0.040366154 0.038920127 0.2647878 0.019085884 0.022423979 0.09323665 0.024499979 -0.00059772405 -0.025570959 0.1449049 -0.0095758885 0.054062195 0.07728148 0.06684816 -0.09961249 0.018800918 -0.07736284 -0.016689153 -0.1351479 -0.05800204 -0.049726047 0.113664865 0.014560882 0.0190264 0.060189705 0.014843309 0.09098373 0.152713 -0.0085007 -0.083824344 -0.016752578 -0.059187606 -0.07850802 0.12784173 -0.051154155 0.055139616 -0.04179251 -0.023163633 0.032198202 -0.009420378 -0.027025327 -0.022772154 0.119129516 0.041001335 0.03749722 -0.13040695 -0.117099546 0.08912242 -0.035274602 0.063773155 0.07344804 -0.11289897 -0.04661846 -0.029034743 0.0852344 -0.04395343 0.19085114 0.008348114 -0.038581427 -0.007617265 0.118136086 0.011851744 -0.009698617 0.038845826 -0.09095405 0.06947548 -0.03729077 -0.020134 -0.03463796 0.01340339 -0.073199324 0.06287888 0.07532323 -0.060667437 -0.0073748687 -0.10640785 -0.12028634 0.02629064 0.074845396 -0.109655805 -0.13153556 -0.012436549 -0.068479225 -0.02731715 -0.02215736 -0.0033846556 -0.059027556 -0.16936356 -0.07663623 -0.0038335917 0.17463782 0.015611493 -0.07293142 -0.0016570727 0.085428074 -0.00084142206 -0.06721838 -0.13793348 0.030731896 -0.046618473 0.10002985 -0.027551614 -0.02623156 0.053007733 -0.079965025 0.023836423 -0.005844341 0.05099367 -0.061468747 0.05037499 -0.10647925 -0.065503836 -0.044396136 -0.04876864 -0.0019479726 -0.09649867 0.063251026 -0.0012595784 0.12546013 0.05112863 0.09633799 0.12230556 0.02838443 0.044672012 0.039988033 -0.022313645 0.0028197283 0.12529866 -0.10144326 -0.09746153 -0.07923381 0.0022390648 0.012895711 0.031237707 0.009478716 -0.030701002 0.1516397 -0.14714442 -0.040733483 0.15638644 0.052621976 0.008387217 0.14048158 0.004487634 -0.12311632 -0.113350786 0.03228738 0.065935224 0.13052614 0.07469113 0.2341587 -0.10090136 0.012299359
) -0.05287459 -0.036357515 -0.07799529 -0.045054946 0.036839508 0.02235246 -0.035417847 -0.07132372 -0.111887425 0.13477379 0.043605614 0.0107046785 0.08772281 -0.048909646 -0.05962228 -0.027651582 0.2289201 -0.013222641 -0.024806298 -0.091471456 0.052816477 -0.06925821 0.030488528 0.0016143164 -0.012824524 -0.02348382 0.04065452 -0.12970737 0.03354302 -0.060875963 -0.04603459 0.08691651 -0.07236258 0.056031577 0.030459829 -0.008387875 0.09052574 -0.015977992 -0.026450984 0.019938556 0.078172304 -0.074667424 0.082930006 -0.06937968 -0.18629897 -0.101485506 0.028969591 -0.036160905 0.058782477 -0.017813403 -0.056509577 -0.028555386 -0.023172256 0.056411535 -0.072691135 -0.052799366 -0.016014578 -0.09199104 -0.05483313 -0.075450845 0.09226185 0.0061499905 -0.07212604 -0.13525407 0.061654225 0.0058812345 0.11594335 -0.1299977 -0.08677432 -0.0064575085 0.036893312 0.01122978 -0.015177211 -0.018097145 0.037166275 -0.022153804 0.08709964 0.15326138 0.06434297 0.0041795727 -0.038733695 -0.03870915 0.056712244 0.03591064 0.08365865 0.050456915 -0.014580266 -0.13937104 -0.0025617443 -0.092713155 -0.056546383 -0.12168577 0.01040787 -0.067691594 0.006185995 0.04283822 0.027520753 -0.06917953 0.032171533 0.15484215 -0.05650412 -0.0633047 -0.05776032 0.025306253 0.02747324 0.17932549 -0.09399442 0.00055749266 -0.14531557 0.060785953 0.007864748 0.09264863 0.11869245 0.010345348 0.008736408 -0.1308035 0.07404915 -0.089484744 0.07305581 -0.118601635 0.077548414 0.0316879 -0.15705048 0.09755652 -0.022818457 -0.08052703 -0.046801466 0.06669134 0.05919445 0.11465689 0.12919644 -0.11903349 0.046116795 0.07386675 0.1911634 -0.13540092 -0.0495963 0.009194849 0.043442745 0.016374277 0.036459737 -0.16006075 -0.010467102 -0.023838481 -0.0053981584 0.15796399 -0.10364505 0.03657909 0.021352345 0.12492402 0.012531785 0.015822962 0.078788064 0.018560186 -0.007394754 -0.060898397 0.14154994 0.075093575 0.07193203 0.08364238 0.08908862 -0.091484524 0.03761825 -0.041671652 -0.015442954 -0.091994464 -0.06166209 -0.009213794 0.06555357 0.05559777 0.05097176 0.03126847 0.06424348 0.057846922 0.10884327 0.11810411 -0.10878406 0.03980294 -0.037810747 -0.08084154 0.09901512 -0.040269192 0.08784371 -0.05864545 -0.027210323 0.03060947 0.03874244 0.015271849 -0.05756709 0.07858844 0.006883907 0.031003714 -0.11476014 -0.18560825 0.021025298 0.004622302 0.05567052 0.044660997 -0.02097733 -0.07078478 -0.061144102 0.06558543 -0.044965737 0.13860719 0.03665503 0.04467733 -0.0057168356 0.116872706 0.068145625 -0.0656821 0.004472325 0.018956603 0.056785073 -0.0069222967 -0.073302865 0.06424013 -0.045521215 0.018682571 0.13485311 0.038987443 -0.046853933 0.012603672 -0.10511727 -0.152572 -0.016413981 0.03497868 -0.14265822 -0.13677572 -0.027632335 -0.03798636 -0.04912714 -0.027411101 -0.011901166 -0.055293016 -0.24079663 -0.048031114 0.005055702 0.20558302 0.038991753 -0.091933504 0.019206697 0.10832288 -0.029000305 -0.07840544 -0.09921253 0.013035342 -0.021747433 0.095710136 -0.049082134 -8.4388805e-05 0.024472196 -0.08622244 0.010758059 -0.0780152 0.057107743 -0.012799984 -0.024926338 -0.12473222 -0.050476063 0.040042855 -0.077507444 -0.08498827 -0.11961771 0.07576365 0.006586663 0.10714101 0.05252788 0.10957038 0.17216949 -0.06219703 0.043881457 0.034130935 0.016618723 -0.0031597794 0.16681209 -0.07241733 -0.16091093 -0.0443846 -0.03708182 -0.024606302 0.054244094 0.0742614 0.020933026 0.15241799 -0.13826123 -0.0013716462 0.19367273 0.071639456 0.06085102 0.16288781 0.047460787 -0.19819432 -0.053159643 0.062627666 0.047704402 0.12674339 0.06617314 0.22090945 -0.11737902 -0.002822795
; 0.058636364 -0.04467866 -0.09749824 -0.019521067 0.056743786 -0.026304515 -0.011609355 0.008324427 -0.070638575 0.145483 -0.030420868 0.1523021 -0.035474546 0.03359736 -0.037813406 -0.0718641 0.22545266 -0.0025816557 -0.013025835 -0.16052964 0.09137825 -0.07599506 0.017505718 -0.05398076 0.015177014 0.06518631 0.049959764 -0.056358762 -0.049654957 -0.01517049 -0.123256974 0.22021206 -0.0065701455 0.066796534 0.05883074 -0.0321439 0.06436439 -0.013672981 -0.060386963 -0.002923403 -0.028327852 -0.06955713 0.015112898 -0.046898086 -0.218837 -0.1525474 -0.045266483 -0.009303984 0.0171311 -0.058406457 -0.03609531 0.07432169 -0.049862165 0.03742444 -0.0020819942 -0.07891694 -0.08602666 -0.037032343 -0.050476853 -0.10555719 0.0985904 -0.07240353 -0.013059812 -0.11517321 -0.0124638295 -0.0024929687 0.11039837 -0.16844909 -0.1182878 -0.08980632 0.048684858 0.028831046 -0.10785888 0.08034137 0.11560558 0.025815945 -0.04570145 0.20419662 0.061613794 0.07703834 -0.009250269 0.04125015 0.02171098 0.084823035 -0.004778862 -0.009412097 0.02699586 -0.095947646 0.062035277 0.12883078 0.029268406 -0.055318095 0.060021505 -0.07565854 -0.06509639 0.063617006 -0.0024688253 -0.14529395 0.06102727 -0.013301146 -0.13107899 -0.018065633 -0.011979614 -0.0238702 0.08441521 0.12885289 0.054881454 -0.0675009 -0.06493973 0.05424696 0.038179453 0.056326665 0.099264316 -0.015032449 0.105105154 -0.08359153 0.16384593 -0.0622798 0.019893648 -0.083375074 0.036763623 0.08475825 0.015605407 0.07970773 0.023102734 -0.05312029 0.00036670838 0.0978841 0.063104816 0.090123735 0.06477565 -0.14757332 0.1295036 0.00831007 0.09615163 -0.19962771 -0.063605554 -0.0006972291 0.06259388 0.037790053 -0.034825757 -0.1341532 -0.1424829 0.04897675 -0.054325998 0.062511675 -0.07614974 0.06504478 -0.06915363 0.14149815 0.020561319 0.0002436643 0.08941366 -0.050000057 -0.13254604 -0.028122762 0.13009241 0.022827186 0.14695822 0.024612581 0.038896482 0.015821211 0.052488215 -0.02557089 -0.068822 -0.20147032 -0.06872385 0.021007497 -0.01193935 0.10023079 -0.010952656 0.03960289 0.08286646 0.055724815 0.092821896 0.07798825 0.04859954 -0.0020655775 -0.11525456 -0.06450994 0.10433257 -0.08708298 0.07654468 -0.03388617 -0.030866792 -0.010941663 0.056143537 -0.07008591 -0.05056774 0.11045525 0.069795094 0.06933904 -0.25028253 -0.16993779 0.02901872 -0.051759385 0.09906904 -0.07583729 -0.1361602 -0.10702998 0.048668683 0.08022925 -0.027154561 0.07388834 -0.12874368 0.000215204 -0.058174077 0.048541076 0.09808109 -0.044850618 0.03548929 -0.035354506 0.07594893 -0.04353127 -0.060719226 0.059142932 0.0874381 -0.15670793 0.1977507 -0.021324331 -0.113477446 -0.0055905734 -0.17745999 -0.08180328 0.041789517 0.057874992 -0.06703272 -0.10070188 -0.011296147 -0.057693362 -0.083605535 -0.040428013 -0.062105265 -0.13480873 -0.13206336 -0.13783267 -0.059775967 0.1119403 0.00321202 -0.14184424 -0.004341886 0.08037824 -0.08773912 0.009071765 -0.09451664 -0.09506257 -0.015828382 0.058633514 0.10536487 -0.039283637 0.085888036 -0.026167866 0.12674563 0.059149854 -0.012702021 -0.05519008 0.08952512 -0.0013440335 -0.021374281 0.05984698 0.000821271 -0.077343635 -0.092337266 0.02162826 0.084722295 0.0056573576 -0.028143203 0.1175922 0.14138092 0.056398746 0.106631964 0.043316744 0.016480433 0.01652799 0.17685078 -0.15941514 -0.10358901 -0.11024743 -0.043356698 -0.08902334 0.07271748 0.0873485 0.019205093 0.06945958 -0.011105932 -0.111064136 0.06902101 0.031346347 0.07791397 0.11927938 -0.03441986 -0.13224728 0.0007903075 -0.016573418 -0.0097583495 0.22834128 0.15478402 0.24324451 -0.044202194 0.10115627
= 0.03369471 0.19716501 -0.00033412824 -0.02777147 -0.011745487 -0.110177554 -0.07888535 -0.016368082 -0.022068797 0.08591512 0.042790588 0.19821995 -0.06330343 0.13520308 -0.052496176 -0.077405564 0.010094161 0.0006933133 -0.11074768 -0.23486528 0.02242365 -0.093542315 -0.03456894 -0.07928936 0.11702235 0.04495901 -0.0035626236 -0.054528996 -0.06865991 -0.0065921783 -0.21006207 0.13523635 -0.060437597 0.1117409 0.03631539 -0.032200422 0.12820767 -0.10110929 -0.1814925 0.08675517 -0.023826888 0.0041153436 0.08441174 -0.15769221 -0.3247543 -0.18717346 -0.18909995 0.021922978 0.06398976 0.08867676 0.022638757 -0.06388015 -0.008630732 0.12393197 -0.050331503 -0.09960646 -0.028425807 -0.09023204 -0.096976556 0.01309307 0.0018518602 0.03151337 -0.04964022 -0.030472258 0.013324667 -0.08781625 0.052942544 -0.15604809 -0.20339479 -0.0133575015 0.13316736 -0.04201048 -0.023610482 -0.0025100957 0.24626997 -0.038328055 -0.056505393 0.23267728 -0.024846217 0.059137646 0.047657866 0.020499382 -0.019611614 -0.0137182325 0.008414771 0.118481986 -0.02047349 -0.053379904 -0.04240278 0.08363362 0.007759992 -0.13820463 0.10041128 -0.021965051 -0.06292934 0.02923769 -0.0027037887 -0.22876015 0.03006032 -0.004045365 -0.044496406 0.004680647 -0.073218875 -0.027611837 0.115890436 0.09569851 0.01998351 -0.045633517 0.034045145 0.0701173 -0.09195322 -0.1342599 0.15330362 -0.023727316 -0.06834555 -0.099305004 0.2717081 -0.1070779 0.033385433 -0.09843452 0.0053456933 0.010122127 -0.08124917 -0.02999134 -0.08520253 0.05935431 -0.052689813 0.085404575 0.098985665 0.0035779087 0.092386246 -0.26059395 0.02343986 0.088974714 0.059688143 -0.19659121 0.0010526079 0.005141955 0.05055155 0.095808215 0.025699977 -0.13741535 -0.0883166 -0.029705333 -0.035397965 0.051132362 0.012036139 -0.07891573 0.07696517 0.23364449 0.03445689 -0.09498309 0.09734776 -0.11054791 0.010421982 0.09079782 0.22270447 -0.009432334 0.10332466 0.058045324 0.031901818 0.11170842 0.06356844 -0.049819805 -0.019709311 -0.3029765 -0.035392154 0.0389164 0.106374554 0.0164255 0.12487024 0.0032122687 0.15789741 0.014652452 0.10898488 0.010384331 0.027822202 -0.033277273 -0.07592325 -0.13424687 0.008804775 -0.0745958 0.100405686 0.0026490896 0.02375523 -0.06360757 0.04872155 -0.108408555 -0.040892966 0.03529807 0.106679246 0.015396751 -0.17936325 -0.039780244 -0.052764677 -0.07331685 -0.008399791 -0.03354987 -0.0742836 -0.11329095 0.05598125 0.031719614 0.056978766 0.10412568 -0.028270539 0.011702672 0.04070171 -0.056969583 0.09729675 0.0114831505 0.06465976 0.12335897 -0.09262003 -0.05616225 0.0015190983 0.069121666 0.12879758 -0.03908192 0.19811198 -0.020451441 -0.017331466 0.05678399 -0.18210606 -0.005578692 0.029417314 -0.021347133 -0.0936198 -0.06696241 -0.2107298 -0.06137251 -0.015343676 0.05034798 0.021724826 -0.1444212 -0.14074208 -0.020931244 -0.07303717 0.14391579 -0.080267176 -0.23922442 -0.08609847 0.11652945 -0.054415632 -0.015479204 -0.13922314 -0.09826754 -0.024552494 0.05781666 -0.0069637294 -0.032723255 -0.041646574 -0.025975572 -0.030252567 0.006006323 0.17101465 -0.032755125 0.13517883 -0.03532475 -0.032388173 0.073456235 0.018812226 -0.062154807 -0.15124837 0.1519819 0.08625142 0.1967898 0.050663758 0.22879097 0.10489821 -0.11972146 0.017631171 0.020980125 -0.011291321 -0.021917429 0.15493035 -0.18797502 -0.11048004 -0.08121222 -0.05394954 0.020381529 -0.06100013 0.010594108 -0.031325433 0.030250201 0.027706636 0.052629963 -0.00056483457 0.04109518 0.08132156 -0.034811415 -0.10754795 -0.15166055 0.00044566166 -0.05936405 0.13728933 0.068463326 0.061380267 0.20177175 -0.12464687 0.16859801
, -0.043416515 -0.14890397 -0.2121736 -0.21452829 0.22978954 -0.015915306 -0.10432749 0.06950414 0.03462613 0.10739014 -0.05774995 0.05114978 0.14551064 0.14703272 -0.04811019 -0.15966472 0.08878894 0.030321706 -0.07007459 -0.118225396 -0.12044172 -0.11598058 0.005857044 0.18706222 0.111487396 -0.11119731 0.06731141 -0.17026098 -0.17080812 -0.078563504 -0.03195924 0.046962287 -0.15742251 -0.18239705 -0.014934811 -0.007896817 0.025871517 -0.058750186 -0.22365725 0.12180976 0.12091461 0.023444941 -0.085629664 0.047576323 -0.11494398 -0.08504266 -0.14839642 0.10700679 0.14923815 0.16415952 0.2801241 0.03165826 -0.15985794 0.1259384 0.05715738 -0.0722371 -0.064154245 -0.019895704 -0.12992685 -0.043015305 0.23400314 0.08893849 -0.088679515 -0.07916391 -0.04013547 -0.047283467 0.23575342 -0.16752107 -0.036762636 -0.13388513 0.055677887 0.10486209 -0.15699168 -0.026533218 0.2692374 -0.29539514 -0.01806245 0.19271213 0.14187096 0.0038970665 -0.0022676901 -0.124834865 0.21443693 0.059072632 -0.14619707 0.07460286 -0.18001327 0.22439362 -0.056254484 -0.10355564 0.046592794 0.18149595 0.014323036 -0.07594117 -0.17227156 0.035836134 0.18216793 -0.18419474 0.021345846 0.22493026 -0.032172922 -0.09857207 -0.11884 -0.11305385 0.093676224 0.105675995 0.09042708 -0.116644174 -0.07837078 0.14911838 0.08865916 -0.035975184 0.22679313 0.2193557 0.022949466 -0.20097649 0.03125189 -0.038232185 0.1025395 0.061149307 0.08826675 0.09323178 -0.120134614 0.23537521 -0.27173004 0.028434316 -0.122253284 -0.13327388 0.07445298 0.15623595 0.13410863 -0.025802422 -0.05265665 0.026169622 0.07990442 0.017897153 -0.2771913 0.0048116045 -0.05868467 0.073914856 0.031920977 -0.05309811 -0.11259922 0.14586535 0.1843988 0.023803966 -0.1258588 0.062342566 0.11060876 0.088947654 0.07649956 -0.0797793 -0.018723682 -0.006269058 0.046764694 0.052453723 0.13750938 -0.04926057 0.2505305 -0.07773748 0.05803925 0.011496884 0.21568123 0.061945267 -0.038357474 -0.22459716 0.026089646 0.0085327 0.15322618 0.15432955 0.018918248 -0.03464152 0.0013473816 0.095467016 0.11969054 -0.08521402 -0.25976107 0.039748512 -0.18256389 -0.04129998 0.09481672 0.18889636 -0.011942214 -0.05180946 -0.16931057 0.0240657 -0.063096374 -0.11195256 -0.21238 -0.021024192 -0.32185432 0.22694375 -0.06376871 -0.1876639 -0.101448655 0.08347626 0.16645138 0.06442991 -0.047202427 -0.04031435 -0.15070647 -0.09436735 -0.18650256 0.102025084 0.06004435 -0.012601626 0.032038566 0.023690898 0.0196915 0.1566643 0.05635763 0.08515624 0.060544852 -0.12321403 -0.04559514 0.16145603 0.046334162 -0.16344069 0.10843681 0.09367053 0.0016756525 -0.0025264255 -0.18516548 0.14284158 -0.024323609 -0.053224698 0.015682321 -0.1793257 0.053972207 0.14161359 0.08649771 -0.08885176 0.053944413 -0.122457616 -0.025415376 0.05796642 0.014164512 -0.056231476 0.0531555 -0.24208352 -0.013264448 0.09657797 -0.09750457 0.016886536 -0.12100381 0.118726045 -0.05770708 0.25995168 -0.14010325 -0.000880027 -0.10432441 -0.12275807 -0.040843796 0.08613455 0.019109586 -0.030334525 0.089793615 -0.251218 -0.03464113 0.027831398 0.12642586 0.14573804 -0.17386766 0.26597202 0.043718196 0.13431497 -0.121476196 0.1244771 0.028246867 -0.16171695 0.22097716 0.099823564 -0.03478017 -0.050830428 0.16948256 0.053803857 -0.21100481 -0.13533323 -0.04084031 0.16776909 0.06264192 -0.040822838 -0.19426067 0.23906133 -0.0077399695 0.108316176 0.24518843 0.16725339 -0.062197674 0.04844296 0.086331904 -0.27072984 -0.10398145 -0.17333832 0.075712316 0.13010325 -0.030788038 0.2540603 -0.037325688 0.087886974
VAR0 0.03735504 -0.019509854 -0.08779905 0.06741896 0.016567683 0.0019116312 -0.1235595 -0.07523872 -0.13924769 0.19295183 0.014232514 0.099827215 0.050580695 0.009735483 0.095282935 0.07346889 0.09487344 0.046328064 -0.10790881 -0.16378298 -0.035547808 -0.010280908 0.08744835 -0.09133437 0.086715735 0.0109807225 -0.19240412 -0.18419905 0.091408186 -0.025820551 -0.14434859 0.2269803 -0.015743919 0.032124583 0.11206368 0.051120296 0.04001072 -0.086797476 -0.12800626 0.048748888 -0.06908341 0.115810394 -0.0855174 -0.08870279 -0.0930132 -0.100907624 -0.076549746 0.057738103 0.13126889 0.031142352 0.043892995 0.14429264 -0.023878729 0.09919987 -0.0782472 0.095033914 0.0031579654 -0.060544115 -0.08731211 -0.03623199 0.2090778 -0.095881924 -0.055419978 -0.08722669 -0.068041764 -0.0175314 0.036474597 -0.030888306 -0.10436194 -0.06351429 0.07202595 -0.10610316 -0.15927379 0.049584508 0.054730024 0.024381993 -0.04907631 0.15409288 0.0343444 0.09179956 0.06345275 -0.066365264 0.06639858 -0.058011603 0.03833799 -0.10272713 -0.03409214 -0.05561732 0.03383685 0.043107435 -0.15217455 -0.1270839 0.07058492 0.014421414 -0.07655951 0.046460237 -0.045961794 -0.07579234 0.041702263 0.11786669 0.014353991 0.1300268 -0.03714386 -0.0031279365 -0.056068458 0.08135674 -0.0376054 -0.065939195 -0.027036391 -0.02128825 -0.12497308 0.008330521 0.13895863 0.06699298 -0.036658667 -0.082185686 0.26939937 -0.12990546 0.02059017 -0.016350728 -0.03976155 0.10745283 -0.17744663 -0.061842535 0.020979766 0.0049258964 0.09368601 0.037463088 -0.01613031 0.07885577 0.16486084 -0.14946382 0.06402577 0.052687693 0.095925905 -0.04923187 -0.09292957 -0.0013697878 -0.06377439 0.049899712 0.044126134 -0.104190156 -0.04828691 0.0012043241 0.008024965 0.21765237 -0.065107815 0.102568045 0.005182387 0.2259221 0.10770656 0.10784926 0.26653707 -0.011216783 -0.05138699 -0.012267394 0.070648775 0.0580154 -0.016390756 0.12030203 0.064064965 -0.06902951 0.027135732 0.032540772 -0.06443608 -0.15851963 -0.13105938 0.07631617 0.034957863 0.13680749 0.13498065 -0.11281495 0.16390121 -0.11124987 0.10728419 0.08264536 0.02415858 -0.026846707 0.034900844 -0.09572741 0.0900902 -0.12064152 0.08566528 -0.043361276 -0.06796011 0.025621913 0.10650453 -0.04075381 0.037541855 -0.049031243 0.07226505 0.02985392 -0.08132456 -0.049813997 0.13026254 0.017979838 0.08981932 0.040174622 -0.09084707 -0.0028685522 0.16373868 0.05068793 -0.037588798 0.23043494 0.022345055 0.053733785 -0.13028982 0.080072135 -0.025212198 0.12841775 0.07153596 0.023833906 0.039892957 0.04026401 0.02957649 -0.015264761 0.07209299 0.05692671 0.11057931 0.03664556 0.0073576043 0.12036127 -0.09019052 0.013041686 0.13123193 0.1049576 -0.13439888 0.06958569 -0.07204718 -0.06955709 -0.016091669 -0.10881847 0.07083938 -0.15343633 -0.11099676 0.06592309 0.12237243 0.0045924364 0.035931744 0.018662486 -0.012330628 -0.029172545 0.010767843 -0.14545086 -0.09581393 0.023872932 -0.1483412 0.10947617 -0.13025777 0.012729879 0.04693613 -0.045837414 -0.10170797 0.0531332 0.09855245 -0.032099027 0.11058458 -0.16383955 -0.044832226 0.012589868 -0.13119742 -0.12530835 -0.2165943 0.16674039 0.060910977 0.15679808 -0.04886809 0.066212244 0.095336124 0.023358334 0.17429785 0.0114535745 -0.050490066 0.012108265 0.20093305 -0.16370566 -0.16099297 -0.07457123 -0.008060365 0.20731674 0.01256461 0.034129996 -0.07254213 -0.015308696 -0.17330267 0.08341329 0.04122209 0.019717686 0.05645258 0.048822865 -0.10837837 -0.10282502 0.03240332 0.031405766 0.06386068 0.11863489 -0.08452432 0.18591893 -0.13342345 0.19089389
VAR1 0.06590995 0.07972251 -0.112410374 -0.14609163 -0.051878925 -0.0047050407 -0.11359756 0.0023023593 -0.1660871 0.10374885 -0.15324527 -0.03362422 0.1001777 -0.0043520215 0.07421612 0.039664883 0.0044471724 -0.0029854844 -0.0012376313 -0.24388903 -0.06272579 -0.06952543 0.21437447 -0.07943358 -0.049741384 0.08408321 -0.049242053 -0.11509666 0.061720137 0.08912234 -0.11187102 0.28042173 0.013905352 -0.0053344085 0.13292748 -0.1526369 0.115906626 -0.064256065 -0.06180583 0.07788436 -0.0747641 -0.0216592 0.01715378 -0.0919622 -0.13235149 -0.11950571 -0.090744615 0.0039602905 0.16400097 -0.12623306 0.11864222 0.064762965 -0.018503388 0.02124333 0.01694006 -0.18529105 -0.0792374 0.109752364 -0.05578376 -0.1547816 0.16836417 -0.09359784 0.09615033 0.011477013 -0.058462866 -0.02509109 -0.03770889 -0.024583574 -0.06914718 -0.114181995 0.042003773 0.06714467 -0.07782224 -0.012213802 0.25645268 0.06797713 -0.09206554 0.0869432 -0.02784303 0.09437396 0.02198122 0.013535746 0.02200311 -0.014721264 0.03208875 0.00839735 -0.011764311 -0.048740502 0.08340253 0.016929159 -0.06494463 0.0464884 -0.00075116294 -0.03296864 -0.03083633 0.056727175 -0.0037503056 -0.17149338 0.034188833 0.06280316 0.070878044 0.082222104 -0.10649814 -0.06719733 -0.008891244 0.08425739 -0.0022684294 0.09697287 -0.016744778 0.034589898 -0.18270032 -0.08292807 0.11170843 -0.15683286 0.010027532 -0.15522304 0.29196626 -0.049876243 -0.009679932 0.010749988 0.08515557 0.097826235 -0.017063254 -0.0039297338 -0.061852563 0.020172121 0.09473099 -0.010591973 -0.069290176 0.04757067 0.11090686 -0.105196565 0.022156665 0.050284628 0.0053811073 -0.12204081 -0.04635087 -0.044830058 -0.075052924 0.13993391 0.0060215895 -0.20554626 -0.03689333 0.045856155 0.02214758 -0.009148608 0.030159157 0.07373245 0.009228937 0.029416427 0.047894314 0.06763797 0.116861105 -0.2035147 0.00095497357 -0.08709877 0.11279456 -0.016865438 0.12343623 0.06300719 0.107119575 -0.13304682 -0.05079843 0.0059748455 0.0039749295 -0.22935788 -0.13629775 0.05801899 0.1734585 -0.06666879 0.0883214 0.082489654 0.12847763 0.04624051 0.17089716 -0.0727764 0.105433054 -0.10620509 0.06155485 0.008264536 0.09289073 -0.036684666 -0.048243903 -0.048243366 -0.033917703 0.046772197 -0.043614678 0.008282792 0.029930476 0.027363213 0.14229614 -0.022144575 -0.14690584 -0.10515139 0.108624324 -0.1606226 0.01826467 0.023421753 -0.028524261 -0.08278952 0.092109464 0.0031185441 -0.013381077 0.06802004 -0.058401447 0.019629493 0.057238705 0.030288713 0.06681727 0.017708456 0.157614 0.009315994 0.21932642 -0.033111688 -0.037760686 0.022706268 0.04636406 0.01143749 0.117437676 -0.10435789 0.046387304 -0.09420477 -0.06017195 -0.103572756 0.081678085 0.10143594 -0.11679949 -0.08096521 -0.15253562 -0.07473396 -0.021670138 -0.08364495 0.14932293 -0.09888376 -0.12575005 0.0003522781 -0.045573335 -0.0040635043 -0.024270568 -0.12252308 -0.020800231 0.14542268 -0.14709891 -0.021635966 -0.18796027 0.013025546 -0.10108121 0.12955995 0.00027840337 -0.02147943 -0.1558483 0.041878175 -0.062080733 -0.03786723 0.11639229 0.007261358 0.058434337 -0.08867812 -0.013777222 0.04920327 -0.027524317 -0.18102114 -0.095376976 0.114558704 0.13465258 0.19765015 -0.0035835246 0.18346046 0.07833657 -0.034623336 0.11125113 -0.0036995173 -0.039125282 0.028188204 0.21590316 -0.091384254 -0.0013703543 -0.12223723 -0.09594252 0.07780781 -0.09999469 0.04255001 0.0490948 -0.009691379 -0.014104543 0.026334245 0.0020230007 -0.05821479 0.062341295 0.06614497 -0.13834171 -0.015668688 0.11367794 -0.055870973 0.017531144 0.11304729 0.0062365546 0.17517984 -0.05281979 0.23065227
void 0.0711081 0.032465916 0.0073546683 -0.16073966 -0.13293816 -0.042971615 -0.18116161 -0.09490111 -0.07879053 -0.00046376852 -0.11889138 0.2539092 -0.045650076 0.16266917 -0.01533806 -0.1999685 0.14702806 0.15124707 0.011366775 -0.35546568 -0.060743004 -0.10395054 0.07547446 -0.18009908 0.12524079 0.0412574 0.25494948 -0.157952 0.12514524 0.036876254 -0.17438196 -0.062303912 0.12400115 0.023794446 0.22395235 0.19227123 0.06225846 -0.12349826 0.04971623 0.08860197 0.14222176 0.27327302 0.15241408 -0.088441014 0.032273285 0.14308721 -0.18003345 -0.09114946 -0.028279904 3.122496e-05 0.13018356 0.051969178 -0.012437522 -0.01965787 0.06422891 0.056782525 0.00015094355 0.09340487 -0.15380009 0.017001504 0.13441809 -0.1719186 0.0049369903 -0.23179199 -0.20806082 -0.07166948 -0.11890671 0.08998914 -0.286813 0.038239922 -0.07988931 0.17664444 -0.009929377 -0.07391123 0.13969292 0.07050377 -0.19213763 -0.07345373 -0.061433896 -0.017059248 0.049343973 0.10401488 0.0924544 0.013632818 0.10884009 -0.1754763 0.28019276 -0.11143278 -0.11928864 -0.085291415 0.11756658 0.032851294 -0.09310507 0.0057284073 0.06689192 0.014576707 -0.055393636 0.030188818 -0.07110202 0.15461867 -0.016369265 0.10323246 -0.07199283 -0.352834 -0.00716602 -0.075277224 0.07418701 0.15955387 -0.1099045 -0.1793668 -0.25061402 0.13604143 0.08821851 0.09238391 -0.1218429 -0.033089925 0.21281154 -0.084342755 0.082056485 -0.19029438 0.1017936 -0.054271437 -0.04342377 -0.010205763 0.11298022 -0.059828453 0.06695856 0.13415274 -0.14064102 0.064839326 0.17516144 -0.10213713 0.04418342 0.12368885 -0.1605948 -0.15902616 0.12506574 0.15410422 -0.2087174 -0.0037898861 -0.15151042 -0.041153744 0.0006186737 -0.0016295711 -0.027381398 0.060963992 0.13016926 0.22500598 -0.2184297 -0.013882723 0.24372675 0.08541099 0.06554463 0.18485299 0.019040696 -0.07073506 0.2237008 -0.21526363 -0.03612664 -0.0069496506 0.21323447 -0.062363315 0.0849772 -0.055322863 -0.0451156 -0.36919245 -0.13516352 0.22491063 0.09587213 0.08264432 -0.0058941753 -0.0046145064 0.11506086 0.04759732 0.01279048 0.10589266 -0.03341894 -0.1900451 -0.114853516 -0.06892913 -0.07962083 0.0009110343 0.04576967 0.036129206 -0.034578703 0.051393397 0.07539527 -0.10333162 -0.06527165 0.02234469 0.18784867 0.018460719 -0.40377894 -0.34293374 0.03229028 -0.25721613 0.06911124 0.09789519 -0.086947784 -0.05495779 0.23609443 -0.05021374 -0.05157077 0.103351645 0.018389791 0.10030382 -0.10278235 0.09904678 0.08755839 0.1591229 -0.058047783 0.01825343 0.052764345 0.070949726 -0.09308492 -0.14618848 0.044550005 -0.20194124 -0.009701949 -0.05347098 0.0034856447 0.033543445 -0.17429689 -0.11283668 -0.069685176 0.04066476 -0.15866625 -0.14639862 0.04153456 -0.013922561 0.11806684 -0.10100367 -0.042740934 -0.29130146 -0.050131634 -0.0013668454 0.06444381 0.08411283 -0.05861344 -0.052971978 -0.11373599 0.12489202 0.21507578 0.011107013 -0.11635226 0.07835417 0.07125707 0.0971722 -0.002411395 0.006594759 0.12647538 -0.05029891 0.13003561 0.011210572 -0.102932975 0.025897395 0.036576867 -0.14350311 0.02024592 0.19861484 -0.018376082 -0.13302855 -0.19316523 0.089138106 0.2273476 0.070724666 -0.0070417477 0.15974335 0.20600702 0.07802275 0.10886897 -0.045463376 -0.22795817 0.20264584 0.29402536 -0.27801603 0.14348575 -0.114093766 0.068301 0.16133803 0.054683622 0.02631391 0.029749531 -0.015498976 -0.015445997 -0.0064975447 -0.09140618 -0.111709386 0.14765012 -0.01814585 0.07314882 0.048178915 -0.033206165 -0.017645387 -0.09243334 0.14093845 -0.12755331 0.4634059 -0.10205766 0.002954255
* 0.008381103 0.06116197 -0.19008851 -0.059981182 -0.09201716 -0.0034424218 -0.0110670235 -0.1051189 0.17067961 0.17962933 0.033879805 0.2975708 0.10617893 -0.14677925 0.10859283 -0.018329306 0.26573354 0.059200495 -0.20870462 -0.21686749 0.15437707 -0.3673543 0.13025714 -0.2903394 -0.050484437 0.048600547 -0.063947976 -0.031655937 0.1727003 -0.075722925 -0.15506075 -0.012095851 0.0026855052 0.083386585 0.13914917 -0.053175963 0.113890335 -0.088609055 -0.20910645 -0.025963845 -0.093067735 -0.034719445 0.019800277 0.022076285 -0.16762257 -0.037441216 -0.27838597 -0.15079981 0.060227096 -0.08178553 -0.19892755 -0.21962453 0.09675037 0.23514487 -0.02438457 0.07990442 -0.14736761 -0.09788115 0.0011825707 -0.026769534 0.110199 -0.25249445 -0.25770137 -0.25789765 0.08757895 0.007914118 -0.059668813 -0.13238008 0.09716471 -0.21027075 0.028909827 0.12108321 0.039567687 -0.0020953154 0.03815319 -0.03187805 -0.06743601 0.07721105 0.11130326 -0.0011403571 0.13276029 0.17459789 0.16562156 0.11859464 -0.05034908 0.10319568 0.09034462 -0.04788796 -0.10176611 -0.23000164 -0.041690644 -0.13288778 -0.06598736 -0.058781948 0.080724575 0.04762076 -0.15494369 -0.082951844 0.14487442 0.06327571 0.12628941 0.06960353 -0.065664865 0.118788265 0.12480771 0.0140082985 0.057659697 -0.13089438 -0.033900015 -0.10811577 -0.05168402 0.06234454 0.004140745 0.0029912866 -0.08117361 -0.06559232 0.44416144 0.0661854 0.24946275 -0.15053894 0.1278383 -0.111822836 -0.10525415 -0.07559757 -0.17406084 0.12581182 0.17608263 0.0696926 0.2363095 0.08467799 0.09310246 -0.17484988 -0.036877096 0.04488203 0.26471463 -0.042626813 -0.20470373 0.14584456 0.20799787 0.14857247 -0.04564621 -0.30166876 0.031815328 0.20341782 -0.05357631 -0.0463845 0.07797155 -0.050577 -0.05508757 0.08802025 0.21197182 -0.034105375 0.13169038 0.14031658 -0.09723361 -0.082645394 0.16255121 0.026062686 0.067895256 0.09130319 -0.17857832 -0.13500915 0.052485254 -0.08868584 0.18059574 -0.16658407 -0.088227615 -0.04859869 0.23364368 0.057330597 0.16912869 0.1286628 0.01772601 -0.08560151 0.21069291 0.0306795 -0.06945354 -0.030829132 -0.079511344 -0.07213892 0.1889013 0.08977588 -0.2596794 -0.27997327 -0.12710235 -0.13691944 0.1198835 -0.0509465 0.24859257 0.023598798 0.060794387 -0.010424064 -0.27716225 -0.21413241 0.11404279 -0.14078726 -0.043450113 -0.1380445 -0.112346336 0.17369282 0.06480636 0.12628901 -0.07280104 0.39867738 -0.12095384 -0.15078405 0.0062695006 0.23747097 0.0282019 -0.08825833 -0.117265575 0.113201 -0.07566415 0.04273233 -0.027362173 0.06839218 -0.049681306 0.10127518 0.060461365 -0.1626648 0.02071529 0.16791731 0.025714712 0.08349172 0.07398066 0.018442992 -0.07219712 -0.16250466 0.030971585 -0.16309613 0.14565806 0.22750583 0.0057017137 0.28632632 -0.22961755 -0.08980039 -0.01439167 -0.07562019 0.14364205 -0.12881842 -0.07664548 0.032652326 0.052477367 -0.25504726 -0.17358088 -0.010573202 0.03122114 0.29000315 -0.1280551 -0.009064293 0.2574219 -0.02452446 -0.11124892 0.1934455 -0.04964316 0.012787537 0.10718878 0.1821294 -0.07585804 0.004832906 -0.10887484 -0.09892246 -0.2503459 0.18195489 0.057622693 0.06989915 -0.15153924 0.17149974 0.14424022 -0.097859986 -0.043120157 -0.023731489 0.054042317 -0.017800556 0.12204825 -0.21750121 -0.05828343 -0.17643183 -0.03573077 0.15290275 -0.2228438 -0.06332713 0.050141208 -0.038028985 -0.15678291 0.08191043 0.18845877 -0.04121039 0.015056771 0.013343765 0.13208643 -0.11795742 -0.23649964 0.21389216 0.22598974 0.056277663 0.051606674 0.14323069 -0.11993345 0.22453466
if -0.008855753 -0.064327754 -0.11146204 0.0010515362 -0.033016466 -0.18939817 -0.13776422 0.03252823 -0.01864928 0.08566574 0.09639442 0.12932904 -0.04591151 0.18836278 0.06573679 -0.20426098 0.092007816 -0.009791764 -0.11379937 -0.23398767 0.12394167 0.026076991 0.14963725 -0.038921144 0.0062761744 0.123727165 0.023994198 -0.11596838 -0.12286896 -0.05693765 -0.08784733 0.025178703 -0.36036727 0.008178847 0.12074392 -0.12441357 0.120998494 -0.07453763 -0.0032911624 -0.10638904 0.033059135 -0.042413566 0.09649599 -0.0483084 -0.287693 -0.04402708 -0.0031865977 -0.05101557 0.22618428 0.09598169 0.11780096 0.05784996 -0.009577877 0.19207694 -0.08348853 -0.27665716 0.044054937 -0.046143297 -0.010238166 -0.12532656 0.19531855 0.10667782 -0.006673949 -0.10966821 0.05212706 0.10102603 0.1777612 -0.3496258 -0.06922748 -0.06590191 0.034737043 -0.07609511 -0.05326188 0.050357953 0.16701879 -0.09127541 0.1438574 0.16258411 0.10735022 0.013309427 -0.08970343 -0.21780905 0.2551869 0.0055221077 0.1778702 0.18735829 -0.18313618 -0.09216737 -0.025733432 -0.03097592 -0.15249087 -0.048342593 0.013998543 -0.064826936 -0.06335535 0.029033676 -0.15303001 -0.14856574 -0.007233131 0.21426362 0.028086275 -0.015320931 -0.13650736 -0.021288186 -0.13044617 0.10613357 -0.24346326 0.093168035 -0.15616776 0.122050576 -0.0651446 0.26108697 0.17022933 -0.03814214 0.07011384 -0.10623183 0.14207742 -0.046493758 0.08610099 0.061400265 0.09544694 -0.022043929 -0.16506508 -0.05976777 -0.21763693 -0.14192888 -0.015305449 0.04283269 0.16742012 0.020979082 0.20242177 -0.18094023 0.056868553 -0.081709966 0.060753476 -0.05205237 -0.13920058 -0.13554904 0.06539355 0.08768525 0.23076028 -0.0050353976 -0.04252002 -0.087239526 -0.0076572592 0.023131253 0.05687485 -0.020025536 0.18181878 0.110077396 0.12665546 0.014546766 0.1535788 0.13195634 0.1009277 0.023864143 0.24432111 0.10452402 0.13950512 0.16868734 0.1315852 -0.0041024135 -0.063737474 0.0887016 -0.061900504 -0.24882196 0.13426133 -0.055553917 0.11924612 0.096160986 -0.13633475 -0.008156724 0.031681873 0.015611069 0.032523908 -0.08627795 -0.07801318 0.0864617 -0.056003228 -0.042651996 0.11178653 0.003979009 -0.07923001 -0.03704539 -0.09523983 -0.04880486 -0.19408855 -0.015634386 -0.01779506 0.04939851 0.08682505 0.065984964 0.13324976 -0.045163725 0.035011135 -0.112255424 -0.097057536 0.031240378 0.17266734 -0.055724476 -0.10029021 0.12284491 -0.110822484 0.1052631 -0.021676369 -0.08594716 0.1189086 0.14141124 0.09104097 0.113914646 0.07598687 -0.07726905 0.116710514 -0.17159933 -0.086133145 -0.052418344 0.044573683 0.024285039 0.0535049 0.045255724 -0.0705567 0.028366342 -0.15979593 -0.028126452 -0.25661528 0.04154727 -0.018925374 -0.1778747 -0.01484198 0.04460567 0.055154443 -0.06922533 0.024339348 -0.011356089 -0.26869214 -0.0037703405 0.13360713 0.09428823 -0.13287038 -0.101797804 0.026110988 -0.053492032 -0.07165043 0.032692228 -0.13052006 -0.025717515 0.051102456 0.2218395 0.008678592 -0.004648517 0.043636672 -0.04343826 -0.1283433 -0.10535085 0.121656604 -0.10048303 -0.01967869 -0.22228087 0.053808514 -0.029333686 0.05047748 -0.020407708 -0.094560094 0.20560241 -0.012576249 0.2121321 0.093683116 0.044918343 0.03390745 -0.053580273 0.18589714 0.08584354 0.037696093 -0.04305121 0.0471418 0.030799143 -0.18313366 0.05257455 -0.0814065 -0.05932703 -0.008337715 -0.04248084 0.076511726 0.24487215 -0.10902307 0.013384296 0.17672072 -0.0006765278 0.06841205 0.1484794 -0.0027696223 -0.13787058 0.08611694 0.08419453 0.070657626 -0.05501301 -0.022555744 0.10904593 -0.12562628 0.0090319235
VAR2 0.107701644 -0.030190531 -0.15068607 -0.08897622 0.021806246 0.0909993 -0.16632085 -0.17285115 0.05315584 0.11419415 -0.01632025 -0.06630127 -0.017204858 0.04973674 0.038713366 -0.12715466 0.055083018 -0.06837717 0.041467592 -0.2720969 -0.10593998 -0.04645669 0.15576664 0.02438823 0.15543315 0.18977636 0.08979009 0.023760153 -0.060112197 0.08839615 0.022334993 0.16174172 -0.1613611 0.08807757 -0.069419034 -0.25847015 0.03199274 -0.057888 0.036378156 0.09725837 -0.113492355 -0.09139625 -0.027205646 -0.008232784 -0.14998767 -0.077787966 -0.107746676 0.08327122 0.14014325 0.002978768 0.13928273 0.05416587 -0.04709691 -0.031272046 0.125894 -0.06995635 -0.1055079 0.023170803 -0.08208118 -0.09986799 0.26702338 -0.007944185 0.062255707 -0.07202032 -0.133363 0.2473556 0.05029706 -0.17908151 -0.010069313 -0.0047086375 0.16929723 -0.094189614 -0.074558 -0.06201328 0.42392394 -0.0032670738 -0.12249453 0.09096535 0.0568791 0.09753139 -0.07026278 -0.03417004 0.087332286 -0.04851629 0.0130675845 -0.0378403 -0.15994294 0.06619617 -0.03585185 -0.06686502 -0.09694047 -0.020704744 0.042879723 0.018864974 -0.12381328 0.032848164 0.0033009253 -0.15378433 0.043662246 -0.0121025955 -0.091893785 -0.08919075 0.08363839 -0.13451208 -0.031602085 0.1339021 0.04988003 -0.13961628 -0.14130974 0.16148578 -0.096471116 -0.11888153 -0.05789195 -0.033725124 0.014025508 -0.1902147 0.22697286 -0.0957336 -0.037976656 0.17584291 0.1703566 -0.071528584 0.0044448497 0.11755547 -0.118570596 -0.11391585 0.16651256 -0.09189481 0.017879846 -0.027066847 0.021877477 -0.044537622 -0.15639716 0.10529036 0.002678798 -0.22853968 -0.18367477 -0.123464145 -0.10105763 0.015887799 0.016529784 -0.1493529 0.100553416 0.0924902 0.15159269 -0.009139118 -0.06221954 0.08564761 0.16437279 0.07954623 0.07356478 0.10080521 -0.0044680317 -0.1072499 -0.065778516 0.12032403 -0.0012105904 0.13041258 0.23118098 -0.0025876074 0.0638154 -0.002467873 0.07298728 0.07532738 0.05279036 -0.2693741 -0.123512946 -0.004228007 0.20608829 0.042649653 0.01278445 -0.032488625 0.16447091 0.052192755 0.013460988 -0.045135543 -0.014363575 0.031089066 -0.049196236 -0.12135875 0.066962115 0.0691058 -0.060199693 0.027652573 -0.11158326 -0.023465022 -0.058122236 0.11581081 0.13891882 0.06769037 0.050100014 -0.0865455 -0.00468933 -0.019006496 -0.062750906 -0.12676013 -0.026873799 0.06672633 -0.031944375 -0.1785931 0.05063929 0.007806703 -0.040194463 0.18823652 -0.046035055 -0.04466393 -0.033699825 0.09956415 0.102751866 0.063969426 0.08091454 0.13218166 0.06553288 -0.10567957 -0.09585508 0.084573336 -0.037436455 0.028251288 -0.10400842 -0.024094025 -0.027766805 0.058619685 -0.018381916 0.03686387 0.049626578 -0.022964444 -0.10193281 -0.1486845 -0.20747486 -0.11999647 -0.0065055983 -0.06703043 0.12560509 -0.26089332 -0.2270574 0.12875634 -0.031245392 -0.14908828 -0.075806156 -0.1122139 -0.0075497865 0.18467714 -0.19782895 -0.029192924 -0.17914104 0.11476896 -0.033390407 0.14615147 -0.015126597 0.050393324 -0.11884501 0.072390355 -0.048314456 -0.09242562 0.002461806 -0.06374009 0.096670896 -0.06300718 0.0078788875 0.051861394 0.03839374 -0.11458977 -0.11853633 0.108805396 0.037373953 0.23579235 -0.09875456 0.041382276 -0.10967975 -0.13861527 0.18545623 -0.06445826 -0.09195913 -0.02708104 0.10411171 -0.12129793 -0.058483645 -0.17873651 -0.12732273 0.14613435 -0.06987665 0.068811424 0.12258936 -0.023501882 -0.097428896 0.055780668 0.05747583 0.049542718 0.041731633 -0.013028587 -0.12218578 -0.0021203647 0.0403032 -0.06378045 -0.039317068 0.071840376 0.15876986 0.09542937 -0.030567901 0.3185193
FUNC0 0.15267155 0.10819554 -0.10605831 0.01137259 0.07602195 -0.014708183 0.08173895 -0.05969261 -0.1147876 0.25793839 -0.014318855 0.121492915 0.11153021 -0.016322918 0.2492274 -0.09662496 0.15797746 0.0052977097 -0.08804393 -0.06923783 -0.08542338 -0.0810384 -0.05755488 -0.002990176 0.1140853 -0.20542574 -0.06665891 -0.21071933 -0.016103636 0.05654207 -0.0065446803 0.032697886 0.21952653 0.1460678 0.14621682 0.043255027 -0.005841262 -0.024506975 -0.121587984 0.044564866 -0.13523366 -0.026302727 -0.09488 -0.09286267 -0.10422357 0.027983587 -0.09364033 -0.15308645 -0.03172345 0.015255244 -0.03308453 -0.010413421 0.021154717 0.21210752 -0.1539109 0.18161201 -0.20014031 0.001984692 -0.02197337 -0.13715489 0.07616491 -0.046192046 0.012334911 -0.17046762 -0.122747645 -0.044558484 0.009935281 -0.008515769 0.060996074 -0.17159732 -0.18390551 -0.047429133 -0.05431905 -0.052801237 0.37192988 -0.036204755 -0.12987942 0.12548761 0.00028046162 0.06015573 -0.061186764 0.009778375 0.17754786 0.07296281 0.03865225 -0.09323492 -0.015457049 -0.09190254 0.07953136 0.03608769 -0.011415389 -0.08335757 -0.023340655 0.003184082 0.09363422 -0.10256845 0.06734578 -0.2011406 0.028824221 0.11737916 0.089255996 -0.084727354 -0.025924925 -0.07760062 0.19828615 -0.07715549 -0.01714939 0.07296163 -0.19119376 -0.053514324 -0.16048996 0.049949396 0.21149692 0.22196756 -0.19573808 -0.13161787 0.15130171 0.08475711 0.090707846 -0.095940106 -0.013650344 -0.039990604 -0.07402548 0.051415678 0.10219031 0.012234555 0.11072556 0.18722892 -0.054412484 0.23394854 0.09573265 -0.28838757 0.11427822 0.040376235 0.14983912 -0.20570117 -0.026872473 0.0042430484 -0.10265751 0.12672424 0.0091205 0.04615753 -0.02692739 -0.098273166 0.05820445 0.11490397 -0.018661004 0.07002324 -0.0857858 0.11617332 0.18236268 -0.08562057 0.14373791 0.06888708 -0.012424077 0.014777021 0.03679678 0.030036226 0.20063701 -0.042437434 -0.071017504 -0.09228644 0.019549621 -0.029722163 -0.015712671 -0.22203131 -0.037631597 -0.103900395 0.13425113 0.27096686 0.2394685 -0.101239696 0.12235101 0.010906106 0.23509805 0.12554277 0.1144044 -0.22986203 -0.005759715 -0.09049419 0.03871671 0.07173994 -0.27974898 -0.0014455301 -0.061356902 0.046003226 0.06764291 -0.06976845 0.22056478 0.07569928 0.11819576 -0.11378234 -0.16253065 -0.18415241 0.05427585 -0.14573729 0.050502602 -0.07170329 0.027870104 0.012275874 0.14674689 0.049840365 -0.13841303 0.18833737 0.0020659068 0.034344267 0.040768232 0.0017853939 0.145869 -0.059371646 -0.035350267 -0.0470882 -0.21342641 -0.1261505 -0.2617418 -0.04184793 -0.062271215 0.1549728 0.11035166 -0.09358095 0.03322473 0.048442546 -0.02912911 -0.085632704 0.1266283 0.15457532 -0.13925797 -0.18973765 -0.14831384 -0.22265726 -0.2103696 -0.07689787 0.042569462 -0.18758665 -0.23953171 0.017272172 -0.10556181 0.054968968 -0.19945903 0.028800527 -0.06464554 0.2586316 0.019732872 -0.15424806 -0.14029804 -0.05567801 -0.03215145 0.18776152 -0.19993314 -0.06451552 0.13557504 -0.13812523 -0.055326816 0.049821272 0.041444097 0.0037534859 0.13961236 0.03536258 -0.10284316 0.15660763 -0.20522572 -0.13435438 -0.097983286 0.06109955 0.113416135 0.13234323 0.114773564 0.03383995 0.13217168 0.15112448 0.051146854 -0.06334658 0.02464872 0.027702602 0.055459917 -0.19147922 -0.01427286 -0.17978737 -0.0921832 0.29953495 0.038040172 0.0092203915 -0.08185952 0.083620295 0.026896197 0.08477188 0.078264244 0.08706122 0.12801132 0.15934746 0.021878392 0.0039072842 0.035023984 0.14784893 0.059833456 0.08729434 -0.047315333 0.25806373 -0.19638331 0.031887982
FUNC1 0.10735054 0.04464161 -0.0357128 -0.049614858 0.010857028 -0.13395646 -0.10292854 -0.05350616 -0.13260764 0.24756281 0.047455374 0.10615869 0.0697014 -0.016283268 0.13422506 0.033276275 0.20797558 0.092381805 0.0080216 -0.23569345 -0.13408706 -0.18786506 -0.064933315 -0.06494858 0.0050330865 0.0069998903 0.021991126 -0.07816921 0.013203882 -0.0073925345 -0.24960908 0.12487192 0.046371523 0.20068125 -0.0011175472 0.09576436 0.1340676 0.017223736 -0.044866003 -0.099111944 -0.07028278 -0.0048011304 0.037190378 -0.093189195 -0.19102424 -0.09729433 -0.028122189 0.10764775 0.113615684 0.042116985 0.012736066 -0.1726096 0.056114595 -0.01680022 0.067075714 0.010700919 -0.17333892 -0.075173326 -0.070663646 -0.033051364 0.120668225 -0.14299063 -0.066555254 -0.109297834 -0.1395225 -0.20107295 0.010523225 -0.11497131 -0.08853355 -0.023895811 -0.07107189 0.06482081 0.012270119 -0.033869796 0.2143233 -0.02158294 -0.22878852 0.0103050135 -0.04671983 0.06208988 0.010390077 0.043721005 0.14919403 0.04713692 0.1449519 -0.048842117 0.017795147 -0.17257454 0.2453291 0.06456147 -0.13134195 0.05477576 -0.18496154 -0.06391646 0.11731075 -0.09204868 -0.05583508 -0.24369183 0.21421471 -0.066638246 0.0031705308 0.040859863 -0.013624424 -0.18082017 0.08695605 0.014098667 -0.09585996 -0.004165087 -0.049143728 -0.020004828 0.020479076 0.039299563 0.06647515 -0.030541757 0.030011386 -0.13789962 0.11050278 0.052438203 0.11428606 -0.10274588 0.064235084 0.112852536 -0.15310508 -0.030167446 0.026266176 0.031725317 -0.007878862 0.112824164 -0.0025244711 -0.004837759 0.12006037 -0.07996304 0.020995457 -0.036221817 0.085600644 -0.24989635 -0.16588074 0.06287971 0.01461169 0.029699156 -0.12235955 -0.05050692 0.14842385 -0.013312881 -0.008907937 0.28003678 -0.12151684 0.044627275 0.026576396 0.0071901963 0.11165702 0.071230784 0.1028717 0.08817144 0.035045076 -0.15311098 0.07974557 -0.021417568 0.06347035 0.12853077 -0.025415484 -0.085033014 -0.02850868 0.0039191106 -0.0908351 -0.045525834 -0.25527427 -0.06933735 0.038636137 0.15012538 0.097093016 -0.0079952935 0.12920237 0.033343982 0.14861737 -0.0072812964 0.054079667 -0.115305126 0.10491533 -0.016516885 -0.0172054 0.06061012 -0.11088156 -0.07941845 -0.07345928 0.09651025 0.12855254 0.020923374 -0.033575073 0.01972308 0.1184716 -0.019276464 -0.2580801 -0.09902395 0.038568914 -0.056830328 -0.026437161 0.041616682 0.03432095 -0.11797427 0.18487327 0.11788297 -0.06101082 0.14612435 -0.011870526 0.120771155 -0.057899326 0.15124388 0.03768553 -0.062421326 -0.2420688 0.06820336 0.04848244 0.039865043 -0.30553514 0.02269515 -0.061361734 -0.05879904 0.06722104 -0.046389446 0.03285944 0.00789762 -0.10906844 -0.26530457 -0.08451072 0.14096633 -0.1970962 -0.03545177 -0.057529155 -0.030745804 -0.052711617 -0.16030526 0.0011505929 0.05054241 -0.2974958 0.12778577 -0.051552627 0.05332026 -0.21681987 -0.024242885 -0.022608627 0.33362398 -0.0587427 -0.011892594 -0.13557391 -0.028177261 0.023561146 0.12799406 -0.18319713 -0.16631031 0.18705608 -0.14927143 0.028510815 0.008494214 -0.0952054 -0.061156753 -0.003582771 0.08563407 -0.012693665 0.033433255 -0.031396486 -0.18992352 -0.2208462 0.03699536 -0.046835274 -0.030876702 0.10981274 0.18258014 0.053747 0.07684038 -0.01141003 0.07265743 -0.014084644 -0.06416065 0.057594743 -0.13210382 -0.08591534 -0.21462022 0.0352097 0.095571764 0.16518949 0.020398505 0.03359766 0.10294843 -0.020582525 -0.037199292 0.1497693 -0.022901595 0.13581008 0.14192855 -0.093100734 -0.13182105 -0.0815293 0.075436674 -0.10263812 0.31651035 -0.018706268 0.2992486 -0.11806713 0.12764916
[ 0.04998312 0.033150733 -0.13662246 0.035273682 -0.018099576 -0.09695112 -0.2516792 0.13183847 -0.014080319 0.1067927 0.027486827 0.046336133 -0.084892794 0.052073926 -0.038723588 -0.05656664 -0.00014328292 -0.2138652 0.16043912 -0.36726326 -0.15479828 0.12118055 0.10401877 -0.11846401 0.11328193 0.000771634 0.048272017 0.019419286 0.09958619 0.046548434 -0.103796095 0.17523694 0.12803559 0.049079675 0.12047596 -0.049489595 -0.033784498 -0.17962617 -0.3712322 0.19514064 0.042763002 -0.16598143 -0.07275411 -0.12102734 -0.3221472 0.29938316 -0.31276 -0.122346066 0.07587864 0.020872578 0.118791126 -0.042313043 0.020417124 -0.14009361 0.13163367 -0.038648453 -0.018528197 -0.090149865 0.04135477 -0.077576354 0.29286918 -0.07350633 0.09007106 -0.068363965 -0.08641217 -0.068377785 0.08919359 0.001127885 -0.28137997 -0.07847319 0.004396779 -0.1115005 -0.00042491814 -0.15760192 0.33013994 -0.05634567 -0.37012908 0.008108591 0.14265803 0.23322058 -0.23638898 0.045114078 0.111026175 -0.14845145 -0.07174855 0.13049619 -0.10175088 -0.27604204 -0.1599739 -0.026061762 -0.080214985 0.014497826 0.051635906 0.090987936 -0.22040509 0.010629091 -0.2545038 -0.12351761 0.0934565 0.10647375 0.081828505 0.23822911 -0.04837386 0.04062283 -0.17723149 0.072693385 0.01850429 -0.06342651 -0.119190834 -0.007877149 -0.24641752 0.053132672 -0.002210521 -0.026155775 0.06071018 -0.10105121 0.44820616 -0.19978242 0.020769719 0.12327723 0.1178054 -0.016508248 0.059915986 0.08125006 0.08272997 0.38201237 0.13417195 -0.0071235597 0.12931591 -0.01149474 0.040292244 -0.1335663 -0.21061397 0.03153114 -0.13440281 -0.026724393 -0.19778608 0.11146766 -0.08051084 -0.017777674 -0.08677986 0.0069454913 0.2857564 -0.011137012 0.007948062 0.19957632 -0.078300826 -0.109400816 -0.16442922 0.0076520005 0.030179169 0.16254418 0.06789557 -0.07765943 -0.12945935 0.26273862 -0.13380183 0.106514014 -0.06663606 -0.09577553 -0.083492495 -0.0626882 0.24691291 -0.019972423 -0.030654442 -0.3510598 -0.14282414 0.014573073 -0.03541317 -0.0015580535 0.16079828 0.09325797 0.1530761 0.12055364 0.010168022 -0.07168605 0.03144917 -0.11125553 0.0115600685 0.12111996 0.09735887 0.05756918 0.12686647 0.25254732 -0.16420671 -0.11877735 0.008970699 -0.16912675 0.16029492 -0.011955572 0.12838526 0.28006226 0.0344378 -0.33051652 0.0017044541 -0.12275585 0.05365697 -0.07160327 -0.090416245 -0.007917222 0.05314181 -0.29982314 -0.0056627356 0.031424828 -0.076312974 0.09532638 0.13613224 0.15459445 0.17927313 0.018014472 0.21920034 0.1546043 0.20716465 0.004750407 0.034396056 0.11560664 -0.14690171 -0.046212874 -0.14125648 0.04057526 -0.045180216 0.00044770143 -0.04408014 -0.08834503 -0.04298769 -0.15388611 0.0014859778 -0.1523041 -0.03643074 -0.025460105 -0.15066305 -0.16785224 -0.049516108 -0.3147173 -0.09527308 0.016243363 -0.12883317 0.13076086 -0.23391698 -0.054450244 0.006108491 0.18282261 -0.12086404 0.21423113 0.13959911 0.21641362 0.05881956 0.28205374 -0.16423588 -0.010341146 -0.06347277 0.14450338 -0.37376374 0.25021565 0.08289978 0.13385336 0.20549397 0.05608681 -0.08529735 0.059197783 -0.0738409 -0.35492647 -0.15393727 0.021566153 0.16478716 0.34472787 -0.04696801 0.12793748 0.0012375173 -0.112574786 0.14535879 0.026083289 0.045896236 0.045184836 0.3142871 0.024860071 -0.109342426 -0.13873199 -0.014107547 -0.106866196 -0.12360654 0.28549537 0.037952807 -0.057365447 0.10044691 0.041889194 -0.11597372 -0.050213713 0.040221468 -0.029156178 -0.13197675 -0.08182492 0.103964485 0.1361293 0.15723334 0.22405179 0.18024185 0.23168214 0.09086605 0.24291468
] 0.10013297 0.044630684 -0.16335052 -0.0085472865 -0.057492677 -0.07435258 -0.17754395 0.072277315 0.10598591 0.1644765 0.013398674 0.121375695 -0.056347203 0.23908374 0.06745017 -0.051089223 -0.092623785 -0.18161161 0.033379227 -0.26999283 -0.18315181 0.17070392 0.10386746 -0.16531454 0.06778309 0.07043396 0.032535337 -0.13111408 0.0897163 -0.04580608 -0.12779754 0.19506946 0.22474933 0.122687526 0.11325367 -0.04127648 0.01793083 -0.13548897 -0.14220768 0.25697795 -0.04397266 -0.029173847 -0.23338526 -0.042183515 -0.2745033 0.15406445 -0.16882925 -0.041927263 0.13841704 0.06952751 0.24849881 -0.16531363 0.057662327 -0.137806 -0.04358811 -0.11776885 -0.06583653 -0.073539 -0.0556617 -0.09132257 0.26397452 -0.101498604 0.18073647 -0.11222344 -0.25616255 -0.042080432 0.10266683 0.059532028 -0.3653375 -0.07842716 -0.012146344 -0.14717904 0.0114775365 -0.27306804 0.28340626 0.018040407 -0.26489806 -0.03126758 0.041278347 0.19986656 -0.0037262724 0.13826804 0.096807964 -0.26662567 0.0320096 0.11820159 -0.17058213 -0.33191985 -0.20540304 0.018897116 -0.1401443 0.07648877 0.098308 0.026261864 -0.19368376 0.092082456 -0.16611144 -0.13096164 -0.061668098 0.12696697 0.12126978 0.12470942 -0.16298413 0.1765714 -0.17995355 0.13160786 0.055025056 -0.095712855 -0.08467251 -0.17247929 -0.10523724 -0.052863326 0.014667943 -0.13245021 -0.004364266 -0.19164933 0.49083146 -0.20306908 0.13467206 -0.12724826 0.090316236 -0.045615654 0.09902392 -0.06297178 -0.11211312 0.38523847 0.24682717 -0.12584609 0.016159745 -0.06582962 0.027241508 -0.10765631 -0.24478903 0.008831964 -0.022076348 -0.055934064 -0.077136956 0.26781338 -0.08846157 -0.0090306895 -0.13338894 -0.030246433 0.0034918438 0.11367353 -0.05836414 0.07780523 -0.055198763 -0.014952846 -0.19117844 0.06661338 0.113895506 0.06402438 0.058258437 -0.1259217 -0.1293985 0.18108402 -0.07520741 0.14706886 0.01022057 -0.24747536 -0.07756668 -0.08090008 0.16806081 0.06970206 -0.06593502 -0.4853516 -0.11013285 -0.0600815 -0.11099652 -0.030616235 -0.036520634 0.023535548 0.114961915 0.020051042 -0.11417624 0.04628929 0.13459933 -0.078474015 -0.04986807 0.043020934 0.12080478 0.23473781 0.10146195 0.07213882 -0.18381532 -0.21282233 -0.013922677 -0.0099811535 0.10368903 0.049322527 0.20515367 0.17671283 0.0087909885 -0.29875728 0.07110969 0.0010675162 0.2231988 -0.1696765 -0.01590425 -0.05631632 0.13753943 -0.17920749 0.07431692 0.010484609 -0.08155609 0.14422448 0.10222239 0.17161167 0.11254094 0.09526355 0.14614367 0.12307652 0.29927307 -0.002481885 -0.00905645 0.031397853 -0.24419531 -0.21257108 -0.19277556 -0.08855717 -0.081902646 -0.0011892617 -0.00838686 -0.015917528 0.030432321 -0.18715826 -0.18159004 -0.27850845 -0.07660348 -0.10363519 -0.123035006 -0.33193618 0.001571848 -0.24753088 -0.08964845 -0.06590114 -0.01172332 0.06528734 -0.1836507 0.03431578 0.09347037 0.1920893 -0.1930426 0.2770015 0.08522047 0.31836015 -0.014251654 0.22709827 -0.16858748 0.1066687 -0.038319763 0.08654332 -0.3209081 0.2146364 0.012217758 0.009531671 0.02835362 0.011033637 -0.2618974 0.07085275 0.09321314 -0.2623499 -0.17702012 -0.021275967 0.33522108 0.33425456 0.0397521 0.23032057 -0.078702964 -0.14261436 0.072069496 -0.021862263 -0.02507957 -0.10246069 0.24278791 0.026513146 0.06678825 -0.07778237 -0.05599752 -0.07444486 -0.17263465 0.08990879 0.11099736 0.0030629882 0.0876351 0.083657146 0.0019866573 0.112280466 -0.018468617 -0.031450424 -0.16867916 0.0013153664 0.07992334 -0.016716981 0.07070139 0.19307157 0.19820982 0.15538101 -0.010169473 0.10571209
. -0.36069515 0.22026604 -0.08119999 0.13324843 0.19506374 -0.26795113 -0.13834214 -0.1293883 0.1208375 0.12392296 0.082733475 0.27093214 0.07563736 0.35492185 -0.10463371 -0.15335326 0.38428622 0.23037787 0.08769819 0.2056399 -0.06453439 -0.2266154 -0.4371065 0.22510037 0.052215047 0.34235722 0.19189006 -0.24627936 -0.088145725 0.1539867 -0.09492463 0.15503809 -0.040484965 -0.4194274 -0.1844739 -0.062098 0.2495671 -0.18064126 -0.064047046 0.2246238 -0.21285886 0.14341028 -0.1351857 -0.25186864 0.048103366 0.19491076 0.09845617 0.003892566 -0.058871724 -0.15682523 -0.06124206 0.33823004 -0.08888856 0.26853818 -0.06290025 0.096277826 0.04771901 0.09907336 -0.09856167 -0.0968176 0.109944925 -0.07661803 -0.35000804 -0.2564895 0.04533187 -0.06579972 0.17886436 -0.26286238 0.053344686 -0.050698522 -0.19172333 -0.093194574 0.11952231 -0.15039358 0.12215437 0.064686686 0.039163105 0.07036372 0.120646425 0.14514995 0.21883683 0.044413924 0.5065224 0.30144396 -0.062269352 -0.0058708396 -0.121359915 -0.08254922 0.19732964 -0.17832555 0.314095 -0.09421528 0.32862303 0.2064659 0.025852742 0.041493256 -0.23529457 -0.13499992 5.1396302e-05 0.023047738 -0.23057893 -0.2457448 -0.15997757 0.13931073 0.23827626 0.18041836 0.20168202 0.24795035 -0.09328862 0.2655785 -0.012682119 -0.3624693 -0.15252025 0.25238147 0.09788764 -0.15366921 -0.011172976 0.30595648 0.004454817 -0.087397866 -0.14498997 -0.17846672 0.19465199 0.3335128 -0.19384176 0.0021247158 -0.09930037 0.16373461 0.094515376 0.34335884 -0.24548866 -0.19572292 0.21551098 0.018104907 -0.102937415 -0.02534162 -0.23838916 -0.046515748 -0.106623895 -0.20188962 0.03215032 -0.091701806 -0.014807809 0.06386675 -0.04925151 0.07952712 -0.13863729 0.13602765 0.084427916 0.33134553 0.367126 -0.0987446 0.019741284 -0.044613488 0.17183311 0.033101477 0.037992004 0.16529298 -0.034983043 0.048197255 -0.07410845 0.2710696 0.5595595 -0.14736252 -0.21268468 -0.28464437 -0.0843545 -0.16232388 -0.19447564 0.18419252 -0.038740247 -0.30682853 0.18983349 0.13298932 0.41073367 0.0749475 -0.31907374 0.09288373 -0.7272387 0.011292273 0.13600367 -0.0045558535 0.18388136 -0.37743568 -0.22074786 0.02432778 -0.18660232 -0.2660468 -0.051571507 0.004067535 -0.23499979 -0.2993291 -0.30331922 0.32587767 0.14356482 0.18032593 -0.115515426 -0.18550894 -0.019789899 0.21531656 -0.30010995 0.093961634 -0.079751395 0.11396106 0.12793157 0.2454146 -0.08703702 -0.08205094 0.03830564 0.23263331 0.13060361 -0.029076768 -0.25845975 -0.018370954 -0.09706144 0.14057954 0.078205936 0.24178146 -0.024944086 0.13484007 -0.06796395 0.22836494 -0.0155177405 0.100016415 -0.0024823104 0.21068153 -0.24114846 -0.0535555 -0.25095728 0.15481557 -0.21944596 0.1864025 -0.42195773 -0.0460598 -0.088408284 0.34226844 0.023915838 -0.18359157 -0.06125201 -0.22817248 -0.015575449 0.062882 0.14546998 -0.03123882 -0.17683804 -0.31181028 -0.30604133 0.45486462 0.12564541 0.27009305 0.043583833 -0.034074917 -0.22625023 -0.15777479 0.17428717 -0.08620753 -0.09292854 0.011602347 -0.091672346 0.100445636 0.104610756 0.0980898 -0.17578563 0.23596337 -0.17884946 -0.17465943 -0.21542849 0.13759953 -0.021954415 -0.26015067 -0.16602717 -0.074129075 -0.20035361 -0.45471296 0.09924849 -0.30773973 -0.4064044 0.0062469705 -0.13111608 -0.30955282 0.024123855 -0.19488347 0.25614157 -0.17463934 0.0005787632 -0.12254503 0.0073601156 0.23028812 0.10440909 0.08764453 0.077803575 -0.05229006 0.15900679 -0.31712708 -0.015416982 0.24321873 0.1352505 0.18322946 -0.037983328 0.26169038
VAR3 -0.03783556 -0.06256125 -0.20294231 -0.096793264 0.09263565 0.099438906 -0.17476457 -0.13246068 -0.10700119 0.15490411 -0.09769509 0.13850363 -0.021401145 0.2133567 0.06402525 -0.2368509 0.24592476 0.0057743066 0.06828906 -0.08696131 -0.10464372 -0.013309087 0.099363714 -0.013923378 0.0943468 0.08637218 0.04427501 -0.08566893 -0.009030506 0.12861861 0.13413219 0.19349028 -0.22014499 -0.04870803 -0.20297669 -0.24573931 2.2082095e-05 -0.016890602 0.00010086453 0.07300417 -0.002619279 -0.071269885 -0.063399136 0.08323783 -0.15478627 -0.25252268 -0.005512837 -0.041936636 0.25107947 0.07301049 0.33783886 0.03128453 0.0029304377 0.05393396 0.15604961 -0.013230005 -0.022483611 -0.1493875 0.0019784588 -0.18225433 0.34753194 0.2187915 0.02906256 -0.04552282 -0.08492691 0.06243689 0.28124252 -0.2316187 0.033023976 -0.047611885 0.12813433 0.015265075 -0.072864145 0.012587636 0.28273022 0.030730354 -0.0030928273 0.15006037 0.1415831 -0.047254637 0.03850566 0.041634172 -0.009361057 -0.02424659 -0.0566616 0.18356064 -0.2154993 -0.028513137 -0.16056141 0.022987157 -0.118953064 -0.04327183 0.08314529 -0.15563393 -0.14820084 0.043853864 0.037042413 -0.23438807 0.019891378 0.0847644 -0.19028984 0.02805035 0.12630552 -0.16083983 0.01889166 0.12929156 0.13317584 -0.1326363 -0.24886401 0.16990447 0.03360277 -0.10890306 -0.15526271 -0.0126967365 0.058948886 -0.23172833 0.15918131 -0.068800725 0.051627386 0.17855236 0.005570859 -0.011113072 -0.0064088316 0.19304007 -0.022641055 -0.018569624 0.11186415 -0.017985875 0.07393002 -0.09638956 -0.033143695 -0.06480106 -0.28889325 -0.09542553 -0.021076968 -0.11904907 -0.18996939 -0.029639514 -0.04231813 0.008260904 -0.033606585 -0.30329633 0.03387584 0.09047235 0.11076569 0.041271467 -0.20351845 0.120321654 0.116006896 0.27942428 -0.049602572 0.1819916 -0.078862235 -0.089988634 -0.00446655 0.14557922 0.021470219 0.08999097 0.28093424 0.00048768715 0.09153896 -0.012277924 0.13172892 0.088076785 0.03975703 -0.20931134 -0.045064017 -0.091371134 0.05584774 -0.034650557 0.042836316 -0.10532558 0.048637573 0.099578075 -0.031672373 -0.093221456 -0.09241613 -0.14935283 0.05968378 -0.046226762 0.17142764 -0.12069891 0.12954415 0.0068632844 0.05392348 -0.17742841 -0.087512724 0.076035075 0.12972267 0.2095384 -0.02029482 -0.111984566 -0.0674335 -0.017214889 0.006736435 -0.24465543 0.045024402 0.09273915 0.05966154 -0.11871323 -0.02487454 -0.053794708 -0.005738064 0.03531658 -0.12365037 0.13320072 0.027404752 0.19352767 -0.044031475 0.020630134 0.15167479 0.035074014 -0.030470835 -0.13290039 -0.07588068 0.050391868 -0.09962614 -0.05544627 -0.0018521367 -0.10675588 -0.0397493 -0.025326192 0.03147878 -0.16037095 -0.09823229 -0.070844695 -0.11703149 -0.24451835 -0.22531708 -0.069533244 -0.15292835 -0.09923985 0.10451968 -0.21996771 -0.28848717 -0.036645394 0.023584256 -0.11790256 0.038884588 -0.09672767 -0.054843213 0.15702683 -0.087470785 -0.11394681 -0.028655943 0.041963786 -0.026887065 0.15507668 -0.009487156 0.14292571 -0.13391574 0.07184231 -0.0052774856 0.114155814 0.12056964 -0.04421748 0.09167178 -0.038630456 0.058893353 0.13856494 0.010026254 -0.16591735 -0.18597084 0.07003679 -0.09081614 0.11789823 -0.040435307 0.08609813 -0.22920251 -0.1934248 0.23850133 -0.06352795 -0.041147266 -0.017281454 0.12062297 0.027949018 -0.06419724 -0.08157145 -0.065023355 -0.09277619 0.09734523 -0.030933717 0.08930159 0.011720159 -0.056511603 0.0359886 0.30030987 0.0049237087 -0.018801693 -0.049255095 0.015281062 -0.12870641 -0.020263696 0.18262361 0.024019495 -0.022212997 0.18120024 0.12534158 0.23147377 0.25167087
100 -0.19588438 -0.29098356 -0.052455727 -0.09672618 -0.10785032 0.13029002 -0.35125473 -0.12882762 0.17185766 0.27785322 -0.13078643 -0.070594355 0.19100831 -0.010319613 0.22680998 -0.18025292 0.2986478 0.04799273 0.16100943 -0.05292284 -0.053211 -0.24175319 0.14126001 -0.0064785886 -0.16331127 -0.5471072 0.07731476 0.014408215 0.08265086 0.15582389 0.049551304 -0.008610315 -0.0091974735 -0.096204124 0.008206221 0.10927058 0.10838747 -0.050946392 -0.3220992 0.32028678 -0.11203013 -0.2954553 -0.14615087 -0.046597123 0.0039621517 -0.22391903 0.11117695 -0.22116783 0.24269305 -0.26384938 0.3740085 -0.25873014 -0.18469971 0.06379021 -0.0357723 -0.00041989982 0.021721805 0.20686449 -0.117432915 -0.019269701 0.37167013 -0.13836537 -0.10163381 -0.34300813 0.0569691 0.08541059 0.09527529 -0.02981396 -0.30837038 -0.08621949 0.21252419 -0.01623539 0.045346726 -0.28809884 -0.05981031 -0.04508935 -0.1782088 -0.15997735 0.20363219 0.19731653 -0.13755953 0.1085112 0.24387033 -0.099960886 -0.3433863 0.15981628 -0.08599723 0.03995007 -0.055697374 -0.058283843 0.09635076 0.16554432 0.15080923 -0.018110795 -0.06610029 -0.07925192 -0.012698763 -0.15486401 0.13528918 0.09277278 0.12661135 0.13591258 -0.10951043 -0.010267118 -0.025041796 0.6671088 -0.038379226 -0.044901315 -0.21620111 -0.24451762 -0.17729574 0.006621312 -0.040209424 0.20495993 0.21050668 -0.104303114 0.2798524 -0.1122301 0.14837547 -0.13640903 -0.067576274 -0.055941142 -0.12820841 -0.08849193 -0.05333188 0.3620364 0.15239447 -0.06596384 0.14567915 0.20979327 0.2943081 0.006116655 0.011040604 0.093645155 -0.15854056 -0.077165514 -0.19897832 0.09677907 -0.012873266 -0.28184468 -0.32466528 -0.38290998 -0.11576525 0.16718495 0.24755801 -0.124114186 -0.1849964 -0.20986933 -0.01931531 0.19164796 0.048252482 0.035545837 0.0023437184 -0.014404323 -0.009021272 -0.1416776 0.07580674 0.35658804 -0.25766525 -0.02549327 -0.18965258 0.17761847 0.20904244 0.023087528 -0.12789086 -0.08568227 -0.2232461 -0.053333454 -0.07404636 -0.04169915 -0.22243106 -0.13852955 -0.015488046 -0.18184973 0.08993109 -0.29579788 -0.01431636 -0.0145857865 -0.047925606 0.18641885 0.013620672 0.14523327 -0.24993107 -0.018712783 -0.34865466 -0.2032961 0.09589857 -0.16409422 0.21150266 0.084244706 0.08269742 0.25708744 -0.0843213 -0.3445652 0.16643316 -0.11955528 -0.0917948 -0.06089765 -0.32842475 -0.058881182 0.053210996 -0.1308037 -0.17640829 0.108165294 -0.23140147 -0.06743707 0.29611462 -0.08141113 -0.30514294 -0.016579669 0.034363776 -0.047290325 0.16041708 -0.037627086 -0.04567049 0.049137175 -0.19729976 -0.17500351 0.27038008 0.030109175 -0.012106776 -0.054791536 0.14941342 -0.20085381 0.12928349 -0.07488001 0.06796233 -0.2292064 -0.14141306 0.20807137 -0.0892474 -0.12377561 0.106443234 -0.3511412 -0.025552345 0.106086366 -0.03810226 0.014755086 0.1833908 -0.12683803 -0.038330745 -0.042350058 0.16945727 -0.08500085 0.07242295 0.18533674 0.08475662 0.098229654 -0.009014605 0.15176271 0.024885977 0.18762408 -0.081122614 0.16356596 -0.020925328 -0.018076334 -0.10031362 -0.002165539 0.0075536864 -0.15882221 -0.053406827 -0.18013428 0.14337839 0.34786576 -0.005625011 0.4761446 0.19883916 0.3900995 -0.108088 0.023668652 0.14502254 -0.015407336 0.18576765 -0.12709759 0.22167093 -0.07366698 -0.0026295104 -0.048794102 -0.053721935 -0.1490154 -0.048339862 0.24079047 -0.22308293 0.24557476 -0.13970011 0.3269806 -0.21766871 -0.093652375 -0.09206891 -0.23111524 0.29496673 -0.08020849 -0.24661455 -0.01611958 0.27938464 0.20807977 0.053207424 0.14142837 0.16585922 -0.16618183
0 -0.021931918 -0.015045133 -0.16568196 -0.26709485 0.0008075294 -0.04526693 0.01702622 -0.044066504 -0.21087413 0.03520655 0.1087343 0.18531722 -0.14854068 0.21753815 0.06673631 -0.054584373 0.040584214 0.11264269 0.00066563266 -0.21821406 -0.070641026 0.07887352 -0.08127289 -0.05608412 -0.10337993 0.24645068 -0.06285981 -0.24100557 0.064346075 0.09878597 -0.11703896 0.12151261 -0.19527881 0.10386797 0.10582973 -0.05880442 0.20265609 -0.09953227 0.0007141734 -0.10282117 0.110064544 0.15452032 0.010780534 -0.07828688 -0.27676383 -0.043127157 0.027198272 0.18761006 0.13917416 -0.061382312 -0.10350964 0.047936287 -0.06609598 0.20642805 0.11567562 -0.14403477 -0.093212724 -0.01634404 -0.03499102 -0.084622025 0.32456428 0.026013834 -0.041154504 -0.12530918 -0.010791541 -0.039085433 0.24298997 -0.23149529 0.04911203 0.02557623 0.009792843 -0.15529828 0.043074224 0.029194627 0.094978146 -0.09776269 0.14765783 0.08994326 -0.022903446 0.2053378 -0.13005745 -0.3257477 0.31535962 -0.002979131 0.10082105 0.2748116 -0.32162124 -0.20960163 -0.07921696 0.07567418 0.06400802 -0.20507604 0.07328007 -0.081818014 -0.14811173 -0.0141782705 -0.16421925 -0.0956028 0.09173373 0.19821706 -0.021245537 0.025017196 0.13073078 0.003066519 0.094872 0.08259657 -0.11518314 0.10702366 0.054184787 0.22821824 0.032779682 -0.21855034 0.069429204 -0.04965522 -0.29408544 -0.06926398 0.16131383 0.05065337 -0.14868008 -0.04170872 0.016659196 0.09579335 0.06470869 0.22020547 -0.02307551 -0.08446525 -0.09805319 -0.008144682 0.11905367 0.00013814279 -0.091241404 -0.042365685 0.075333685 0.04523136 0.10350005 -0.027519902 0.08350512 0.12521252 0.15215804 -0.06451918 0.075250685 -0.2607119 -0.043872736 -0.18369284 -0.12559521 -0.095563464 0.0115418285 -0.15815048 0.060835853 0.12678301 0.03799677 -0.016918233 0.04084732 -0.10068565 -0.040731214 0.0051150206 0.28384116 0.06624522 0.19125399 0.24047674 0.057302624 0.101242095 0.07520587 -0.07432766 0.020352261 -0.21721438 0.16782424 0.06797224 0.04059776 -0.0084908 -0.039178826 -0.017476788 0.11512803 0.107325174 0.087130755 -0.023688741 0.07358122 0.09222438 -0.03244377 -0.1100503 0.15941383 -0.27000526 -0.011247715 -0.121754944 -0.12768209 -0.10293592 -0.050799683 0.082097605 -0.0437013 0.07275736 0.035662726 0.05131196 0.1798344 0.041667093 0.023589682 0.018764282 -0.2872725 -0.06673978 0.2872648 0.14264551 -0.05743555 -0.121937126 0.12645705 0.17386393 0.014486887 -0.18628731 0.13797927 -0.011600281 0.16357298 -0.014470669 0.22044423 -0.090924636 0.11407674 -0.15481454 -0.15405658 0.22469965 0.020053603 -0.005742194 -0.10057664 0.20065199 -0.002285372 -0.035652917 -0.21043065 0.16123335 -0.35145584 0.117146775 0.054334443 -0.26400948 -0.06781688 -0.10035028 -0.19510809 -0.08668144 0.15991439 -0.2756271 -0.29259253 -0.07037768 0.09424529 0.0350214 -0.031054314 -0.12467795 -0.0068354527 0.06505468 -0.19016905 0.084676005 -0.008863902 -0.012742836 -0.10308113 0.0034371316 -0.11889738 0.098749906 -0.05352496 0.10582033 -0.040836796 -0.046318207 -0.0479782 0.16220789 0.27848217 0.004450626 0.12701057 -0.14915246 0.15731545 -0.027833827 -0.1574031 0.13140886 0.12800018 0.27506036 0.030130506 -0.045233402 -0.074861035 -0.023182705 0.16121738 -0.2107488 0.095960476 -0.26721647 0.0075996206 -0.12372494 -0.13767049 0.07801416 -0.14541952 -0.08048007 -0.0419107 -0.00011360633 -0.0616267 0.03284202 -0.08245341 -0.13899252 0.2355248 0.072958715 0.1414604 0.02542865 -0.3008864 -0.053776406 0.14461534 0.064212956 0.17185748 -0.06163617 0.03659021 0.1389146 -0.0058999937 -0.17688756
== 0.077692755 0.048827536 -0.036052033 -0.18045092 0.07945078 -0.15682618 -0.07758148 0.048101902 0.032958366 0.062469725 0.19803295 0.10499609 -0.03873841 0.08673425 -0.11471106 -0.051919658 0.2187935 -0.03567498 -0.056875918 -0.044914972 -0.07771186 -0.011690426 0.0008333195 0.13425143 0.06592467 0.118338495 -0.087012574 -0.19617671 -0.21673113 0.11110829 0.05145007 0.14471121 -0.43863693 0.028714111 -0.035058953 -0.08680196 0.030653588 -0.21073768 -0.08077669 -0.050684 0.18765008 -0.07899057 -0.047994666 -0.11279361 -0.30755636 -0.05911547 0.023045963 0.2610547 0.2053748 0.13077214 0.15726064 0.08347606 0.035170987 0.059781153 -0.060676984 -0.23657027 0.016283982 -0.0385668 -0.07370195 -0.23945788 0.2721029 0.35377163 -0.09292408 -0.12599406 0.1640312 0.039447013 0.20065169 -0.351122 -0.093548805 0.0135398675 0.1321388 -0.17369585 -0.0493227 -0.124374434 0.3092296 -0.124152094 0.11951707 0.077554 0.064158686 -0.013971012 -0.042202562 -0.1838886 0.28107592 -0.034893624 0.042254873 0.19044569 -0.30063444 -0.14455837 -0.0449329 0.12472789 -0.04739245 -0.15269096 -0.06172193 -0.14359011 -0.104458 0.03043751 0.07667774 -0.24562581 -0.03018703 0.18945388 -0.04209725 0.06724218 -0.12968782 0.0075165876 0.13745023 0.14001286 -0.08636759 0.104934424 -0.17488344 0.33832365 0.03708775 0.16917136 0.10478726 0.0753385 -0.27691725 -0.08777006 -0.0027031016 0.012636587 0.116520554 0.08326657 0.037482668 0.15241693 0.027149057 -0.0004203583 0.012223873 0.07544159 -0.0070620654 -0.052013062 0.33006802 -0.030264298 0.045764446 0.06372292 -0.22712335 0.08941771 0.08315068 0.013365944 -0.22075407 0.057106256 -0.020280885 0.08357468 -0.005269633 -0.0072489036 0.0002249205 0.06598431 0.19291282 0.10964249 -0.033466075 -0.09728088 0.17862707 0.19558097 0.22991127 -0.12978832 0.1634917 -0.06518626 0.10454877 0.17379029 0.23293424 -0.08446389 0.1797182 0.19599256 0.121469945 0.058936413 -0.010689723 0.114963904 -0.028881432 -0.13081366 0.27646762 -0.20229672 0.1668586 0.26595384 -0.12395568 -0.12575716 0.031971864 0.1618308 -0.14403063 -0.20873308 -0.2457196 0.018712869 -0.08466974 -0.1913043 0.08156074 -0.112740055 0.05993156 0.016251143 -0.18971303 -0.21180892 -0.10366452 0.027596984 -0.37473664 0.047750827 -0.053065054 0.1341814 0.13470758 -0.0020873519 -0.10487748 0.017647943 0.01352138 -0.17690939 0.01316634 0.11971681 -0.15616542 -0.13987917 -0.080737546 0.12618268 0.01793741 -0.04149979 -0.0049871523 -0.04035878 0.073960565 0.105892226 0.047875315 0.05105502 -0.058595628 0.036393035 -0.21691442 0.112124905 -0.022512665 -0.0974414 -0.08886921 0.086633965 -0.045303065 -0.29433158 -0.11623605 0.22291467 -0.38017645 0.039089967 -0.002297444 -0.31624684 -0.002827018 0.07064065 0.11499729 -0.018505469 -0.0019790742 -0.033975594 -0.24777855 -0.16058889 0.15276931 0.037730027 0.109962575 0.13436987 -0.13635287 0.22284298 -0.09713601 0.00970495 -0.02190117 0.03734193 -0.2190927 0.1338486 -0.04452748 0.18289982 -0.11966914 0.086680345 -0.2673086 -0.17155515 0.1233007 -0.15449883 0.11460743 -0.3786877 0.12628922 -0.0041545196 0.13726655 0.066549174 0.13837487 0.32026243 -0.080655985 0.27715877 -0.1516063 0.2534182 0.08123433 -0.11727112 0.2209574 0.27521706 0.116933055 -0.11813454 -0.011835804 0.061931748 -0.12197171 0.22198749 0.013664119 -0.14306414 -0.09956221 0.005550297 0.0050976407 0.21886633 -0.02620094 0.10487941 0.44417107 0.15863766 0.12985797 0.25218174 0.0076364325 -0.11749417 0.08998439 0.17326874 0.14403309 -0.021454155 0.12317476 0.065168254 -0.0019205337 0.03449369
1 0.16224018 -0.14325881 -0.38336173 -0.20279448 -0.00614772 -0.2599257 -0.11127385 0.025172131 -0.040608935 -0.022705046 0.078521736 0.06014712 0.35633445 0.09275211 0.03331201 -0.20992012 0.072189294 0.24952981 0.052979343 -0.20922145 0.011145956 0.05420686 0.07186243 -0.054380342 0.21493989 -0.021341367 0.10246474 -0.13560386 -0.08885179 0.015212339 -0.22747535 0.018213402 0.05840818 -0.04449391 -0.034639034 0.19818188 0.18268491 -0.18119611 -0.37555525 -0.04986382 -0.0968926 0.21008584 -0.15608738 0.047758605 -0.0951414 -0.006675799 -0.29329354 -0.2664218 0.23338483 0.072226085 0.05626188 -0.04516571 0.019142263 -0.07565235 0.07852563 -0.03997341 -0.06852274 0.053495094 -0.19650537 -0.051934615 0.2793397 0.17264779 0.12535086 -0.25453842 -0.12894586 -0.07078517 0.086960346 -0.124211855 -0.14347796 -0.298419 0.0030256293 -0.013965373 -0.025261823 0.029673222 0.054139834 0.03475234 -0.316566 0.28089848 0.24915636 0.005554665 0.040994506 -0.1547909 -0.043373004 0.09962515 0.0028952365 0.29270902 -0.37884083 -0.038045507 -0.24139905 0.1256143 -0.12254669 0.017482258 0.054278724 0.009022916 -0.21133938 0.017609805 -0.10027654 -0.058003463 -0.13364077 -0.008925374 -0.026126958 0.16092448 -0.15561625 0.026401563 -0.01557733 0.21397541 0.04239067 -0.10891624 -0.10084422 0.10018409 -0.14128116 0.13406998 0.13733813 0.26278982 0.00022872492 -0.19266751 0.17682256 -0.34984142 0.07614269 0.027504494 -0.14699237 -0.15928444 -0.092554584 -0.048297763 -0.055645607 0.026519528 0.2316962 -0.10125404 0.1045518 0.014980164 0.14559957 0.014212583 -0.23833369 -0.024352102 0.20253217 0.20487416 -0.1382937 -0.07647528 0.01672775 0.08366331 -0.10156097 -0.05068104 -0.058269512 -0.007210644 -0.067243434 0.40930623 -0.33662462 -0.26041472 0.1235566 0.19187601 0.061222285 0.024441924 0.32127658 0.14813398 -0.002881418 0.087457865 0.043113675 0.0035139346 0.06792724 0.08217001 -0.02264901 -0.21320501 -0.054551132 0.10760898 0.082072176 -0.13697223 -0.060709514 -0.036155533 0.21567935 0.172749 -0.02504945 -0.14501014 0.15861754 0.014848114 -0.18490466 -0.1668171 -0.06093346 -0.119074546 0.103823505 -0.014839109 0.19353049 0.037660923 -0.056909103 0.10720742 0.09243639 -0.008777024 0.12598537 0.08178168 0.14739096 -0.043281946 0.08537886 0.09997414 -0.088791154 -0.12762575 -0.07509245 -0.0031220482 0.06421259 -0.12033152 0.06674325 0.13112243 0.01939862 -0.10864344 -0.05896092 0.08214539 0.117119335 0.07331376 0.060457744 0.15370934 0.065512985 0.28112012 0.10964947 -0.027163832 0.016017344 -0.018087326 0.04708443 0.14610165 -0.29477054 -0.106046155 0.12198155 0.17457086 0.14891562 0.017624103 -0.0999189 -0.18772948 0.014816957 0.0050729685 0.06248746 -0.30731422 -0.25789198 0.06335834 -0.12924494 -0.2472323 0.044990227 -0.31912068 -0.17460887 -0.07819894 -0.085812934 0.11910438 0.09178752 -0.13529295 0.03974547 -0.14337082 -0.11757133 0.04851104 -0.012454287 0.1062187 -0.013619903 0.18081973 -0.16017935 -0.039633006 -0.25841632 0.07984578 -0.04009115 0.1978995 -0.026744682 -0.12471775 -0.060337886 -0.081319764 -0.06003966 -0.06967741 -0.19987597 -0.27997416 0.0023867046 -0.03407921 0.05719477 0.2296574 -0.098526195 0.1323677 -0.22268161 -0.08848683 0.20340097 -0.018247733 0.1271455 -0.11455318 0.2144099 -0.10521881 -0.18855263 -0.08903907 0.08623171 0.126379 -0.16624734 -0.074140154 -0.09837021 -0.028801223 -0.016792057 0.07453278 0.041255653 0.06412254 0.08072856 0.09526504 -0.20682159 0.113242246 -0.17374091 0.01229757 -0.030856514 0.06616293 0.09680837 -0.08863787 -0.02059123 0.04186431
- 0.034332886 -0.046044875 -0.28368244 0.14527565 0.33325168 -0.022075418 -0.19432798 0.34012437 0.28350073 -0.26192293 0.16649641 -0.05366066 0.15511656 0.21999586 0.218056 -0.19544709 0.0851783 0.44749522 -0.20569356 -0.13590063 0.15922411 0.2870062 0.08333747 0.16455688 0.25057787 -0.29179102 -0.03302675 0.031994212 -0.32968763 -0.07065867 -0.15342745 -0.0038923293 0.30523947 -0.03467223 -0.044894874 -0.019334437 -0.11971484 -0.08650103 -0.31973496 -0.047594268 0.19129123 -0.1107691 -0.16756286 0.082661614 -0.18234481 0.17399473 -0.045480784 -0.4180073 0.34003288 -0.004750691 0.25690767 0.050641958 0.19959113 -0.13083497 0.088868484 -0.043746006 -0.2123289 -0.058240853 -0.20925534 0.05478856 0.29531503 -0.007325596 -0.01349149 -0.1694053 -0.1192073 -0.04561083 0.061322674 -0.25510707 -0.2675309 -0.34202436 0.0055967 0.0056093284 0.1102977 0.07328055 0.080021925 -0.04049935 -0.31342703 0.16539708 0.15611853 0.116429515 -0.15416436 0.12624896 0.007952689 -0.036012042 -0.085521065 0.24776079 -0.337043 0.11718986 -0.29581973 0.23178518 0.08749555 0.048359748 0.2133606 0.03191811 -0.21229903 0.14201877 0.085104354 -0.30628824 0.059052162 0.053567424 -0.049595866 0.16745451 -0.1625046 0.19339073 0.03755223 0.24025868 -0.06473655 -0.15979181 -0.24458678 -0.12695614 -0.069688454 0.087293446 0.062072624 0.08429571 -0.15874296 -0.08861682 0.35259777 -0.4577746 0.24406357 0.009718439 -0.14161377 0.0656772 -0.25119156 0.0038544512 -0.14245003 0.14552121 0.12971163 -0.26109162 -0.05553852 0.010684274 0.42584577 0.04373844 -0.1252478 -0.22193821 0.30832636 0.23452082 -0.10187678 -0.099757664 -0.12788826 0.30202866 0.10184524 0.13713053 -0.08645079 0.05529486 0.016626026 0.3833465 -0.2789439 -0.21664795 0.29773024 0.06805841 0.09129591 0.24555027 0.23773779 -0.031035237 0.037483945 -0.15068921 -0.015773706 -0.15438582 0.12561202 0.044433534 0.0588026 -0.048158143 0.10381538 0.012595443 -0.02529949 -0.085724406 0.09210585 -0.01617855 0.16254775 0.08097414 -0.17582072 0.17143703 -0.031460337 -0.0027654658 -0.09951568 -0.13727728 0.1157346 -0.046320893 0.063303754 0.32148805 0.25641835 0.045392103 0.014007446 0.04055831 0.08339351 -0.067346565 -0.01311127 0.09135012 0.052634005 -0.046649966 -0.06400169 0.2565268 -0.093949 -0.21733695 -0.12923941 -0.044201434 0.19232285 -0.012272936 0.19620201 -0.15433845 -0.26759118 -0.2532307 0.10998342 0.19686644 0.10708584 0.03191049 0.014617343 0.012693028 -0.113656126 0.19144495 0.16039689 -0.010016581 -0.120936714 -0.13058145 -0.21546431 -0.14940643 -0.5475382 -0.051548883 -0.045187846 0.15172185 0.2837951 -0.07729426 0.19401121 -0.2214424 -0.1467816 0.15011378 0.2544515 -0.14010426 -0.01145061 -0.036224578 -0.14351523 -0.04787866 -0.014838676 -0.15624784 -0.27179027 -0.018266266 0.0730604 0.21212995 0.1410643 -0.0766586 0.10460139 -0.07839031 -0.3173906 0.069117665 -0.0678896 0.12696345 0.24143806 0.29803163 -0.003590894 -0.1003903 -0.5221636 -0.067606665 -0.16966558 0.25081187 0.0123486295 -0.30858913 0.022937322 -0.11939136 -0.10788047 -0.01122619 -0.28855073 -0.35526976 -0.14325519 -0.06284714 0.14841174 0.36771595 -0.23773003 0.17072096 -0.08048116 0.008311389 0.03382497 0.17962821 0.017072013 -0.076494046 0.1642353 -0.13818914 -0.20404245 0.0697475 0.216908 0.068000965 0.043175593 0.07589672 -0.039417062 0.30030882 0.00088748656 0.003065628 0.049313866 0.055353638 0.10278832 -0.13559262 0.23048875 0.15931123 -0.1794884 0.16471715 0.18274836 0.1816329 -0.25338152 -0.030408556 0.02633256 -0.037383325
VAR4 -0.07920241 -0.046591736 -0.12952821 -0.09744136 0.26878026 0.016827459 -0.16828799 -0.10624489 -0.07594671 0.0976452 -0.036237016 -0.0485314 0.019171854 0.18563949 -0.06781686 -0.30377364 0.27484214 -0.014979946 0.007100896 -0.14093184 0.0080651855 0.013425314 0.08302723 -0.08281115 0.061051775 0.17046356 0.17438298 -0.017869897 -0.062441636 0.14005114 0.25942868 0.21235734 -0.27941957 0.042035405 -0.20411311 -0.1166575 0.025917433 -0.051163506 -0.1405972 0.07489812 0.049983095 -0.136439 -0.02077098 0.016984046 -0.18032232 -0.23011164 0.028022932 0.07923449 0.11484803 0.20834436 0.30328104 -0.019655084 0.081810705 0.14403619 0.1903443 -0.08644869 0.06471663 -0.13236605 0.033258446 -0.13061267 0.20857103 0.23235138 0.05948381 0.006265291 0.08028771 0.1678392 0.17596678 -0.36630282 -0.12888308 -0.070472464 0.043741263 -0.03917165 -0.14028539 -0.0076899715 0.14973314 -0.061713748 -0.06728814 0.015013861 0.16677408 0.05903905 -0.009528673 -0.059731003 -0.008119168 0.018531637 0.0017965856 0.1241663 -0.30132398 0.089728065 -0.15036592 0.20711356 -0.039533246 -0.026028156 0.1256047 -0.17889704 -0.32314193 0.13752323 0.20503843 -0.18069172 -0.042902652 0.14281267 -0.20828119 -0.013344928 0.16580135 -0.15074086 0.089065336 0.29847503 -0.014086696 -0.20084524 -0.13521105 0.23630847 0.15566218 -0.0449535 -0.060725186 -0.044668395 0.021672621 -0.20902821 0.31102479 0.018602349 0.035580453 0.16608731 -0.08631275 -0.02305326 0.034510594 0.15356171 -0.016510833 -0.06570323 -0.107247874 -0.18016104 0.038806453 -0.21595033 -0.047693938 0.023397015 -0.26421776 -0.10938241 0.12587985 -0.015159519 -0.19876714 0.07201041 0.040358152 0.027033312 -0.1412279 -0.28563792 -0.15341932 -0.033279788 0.23536825 0.13692935 -0.06390831 0.049541373 0.1671849 0.23639251 -0.0045340755 0.0667961 -0.19772226 -0.28859776 -0.1402148 0.017483449 -0.035428572 0.0833459 0.31640914 0.08653718 -0.0141566405 0.024770333 0.09163273 0.07665433 0.07345642 -0.078613885 0.04465238 -0.10397665 -0.0050416626 -0.15433635 -0.09666211 -0.16265254 -0.030443093 0.24699265 -0.027408864 -0.24272886 -0.083560474 -0.07063988 0.13056587 -0.010907344 0.17303063 -0.18888052 0.03622057 -0.057998717 0.054742675 -0.15357731 -0.09476517 0.0786542 0.10534318 0.22422448 -0.024774054 0.07552304 -0.07951745 -0.09338292 -0.07264892 -0.054285508 -0.024442386 0.06778305 0.026345627 -0.16960427 -0.16907954 0.050619286 0.06754366 0.00051814114 -0.0716404 0.03177049 0.100633256 0.16225283 -0.15171671 -0.005032419 0.162972 -0.021630632 -0.07063777 -0.17668031 0.010461067 0.12893738 -0.10506041 -0.14151353 0.122116305 0.07541392 -0.15639257 -0.14214826 -0.15067406 -0.1317443 -0.06621232 0.02539961 -0.029614318 -0.24540704 -0.17138556 -0.058182266 -0.07866057 -0.000309505 -0.0344238 -0.18481764 -0.22010705 0.046566844 0.060952283 -0.03961815 0.08919297 -0.03052598 -0.14604516 0.07753697 0.009019841 -0.07439157 -0.09871139 -0.15890914 -0.24077566 0.19261001 -0.0015364058 0.07940834 -0.021141252 0.10329478 0.012191506 0.02877674 0.20391832 0.0034941565 0.11997137 -0.060105596 0.022267831 0.11478462 -0.13467048 -0.26464123 -0.012992518 0.1794169 -0.20221633 0.23953481 -0.14853421 0.18114614 -0.033039484 -0.11077666 0.18576822 -0.048454974 -0.017393539 -0.2920573 0.09024783 -0.068140864 -0.14439274 0.0012393147 -0.15289102 -0.041855834 0.0410832 -0.0740405 0.14889848 -0.11714619 0.049131878 0.045282222 0.42577583 0.111761875 0.10191688 -0.03259082 0.09058344 -0.08780021 -0.07156728 0.21464509 -0.08028434 -0.033415027 0.27520722 0.11823015 0.134597 0.20195131
sizeof 0.06859496 0.13089515 -0.21682806 -0.030370371 0.24110779 -0.08236718 -0.026930153 0.07164376 -0.12543629 0.34349543 0.1591712 0.1486732 0.21005496 -0.02161105 -0.15447836 -0.018022964 0.36289975 -0.11552936 -0.119720526 -0.233577 -0.14657755 -0.34495065 0.0135634905 -0.1573292 -0.017975384 0.054316483 0.05963479 -0.17266555 0.3281787 -0.0919364 -0.16818367 0.011300425 -0.20070104 0.26569507 0.3041558 0.018656462 -0.0016634886 -0.16692382 -0.17195097 0.27818495 -0.10243931 0.108214565 -0.13200481 0.03937966 -0.33462068 -0.0724027 -0.34916347 -0.12887982 0.057030763 0.0019478368 -0.051555753 0.08948923 -0.08160151 0.17747717 0.042636167 -0.14699079 0.003784551 -0.11969633 0.0043412526 -0.100537494 -0.06650482 -0.112167306 -0.36326915 -0.1750905 0.08731299 -0.19032298 0.31536835 -0.1323278 0.16223101 0.20062932 -0.0119150095 0.074006826 0.18622541 -0.43835685 -0.045438357 0.049047645 0.014629404 -0.33624583 0.25963625 -0.32364416 -0.33495504 0.07447316 0.20759577 -0.13895454 -0.19470996 0.344391 -0.20197105 0.010404437 0.03476241 -0.0125875855 0.3233486 -0.08718122 0.026522877 -0.048053205 -0.20352662 -0.09911168 0.26598564 -0.29630414 -0.019375147 -0.12930278 0.16242675 -0.021663701 -0.0124267135 -0.101948865 0.44461688 0.085538164 0.11064746 0.07811226 0.082151406 -0.03249273 0.08061818 -0.04305194 -0.07967825 0.18555214 -0.17397465 -0.18336949 0.33224237 0.041742686 0.012045048 -0.026534267 0.45749328 -0.2682788 -0.032834362 0.21899475 -0.13843349 0.23053743 0.042257763 0.07880099 0.36004943 0.14829311 -0.11076806 -0.0844741 -0.3302287 0.37940854 0.24334979 0.017839242 -0.18726033 0.13626179 0.14687513 0.16423748 -0.123216406 -0.23678233 0.23340057 0.090698645 -0.17229703 -0.03499584 0.07892823 -0.022053793 0.1254822 0.020574782 0.19230841 -0.10369843 0.054288726 0.025917126 -0.060191523 -0.008851036 0.18685299 0.11113069 0.15177912 -0.16308822 -0.20640448 -0.17144151 0.10015949 -0.0213376 0.048675694 -0.08729083 0.16894731 0.022388255 0.08009252 -0.008132616 0.13329175 -0.082443364 -0.2060622 0.098150834 0.3902125 0.010900428 -0.31267396 0.17354421 -0.14116518 -0.088846944 0.4761554 -0.022665368 -0.041123044 -0.063660875 -0.26155108 -0.043140583 -0.007072198 0.014902895 0.010264624 0.096693605 -0.0832048 -0.17234991 -0.08584269 -0.30056432 -0.10446429 0.22184204 -0.15224932 -0.23045787 0.2943769 0.13899846 -0.105614565 -0.0034149452 -0.09489163 0.29160988 -0.06425165 0.07783049 0.24215572 0.28420842 0.19942418 -0.083250076 0.24170206 0.16300075 -0.045558263 0.0024631887 0.030933943 0.17602426 0.16056259 0.19169973 -0.08799989 -0.06862359 0.07530711 0.0054307277 0.036000974 0.018450744 -0.15011957 -0.10532711 -0.13185163 -0.46435902 0.027492793 -0.07754648 0.08509959 -0.029504292 0.12585199 -0.1025339 -0.02887669 -0.12462141 0.15819146 0.08054538 0.2963489 -0.109354004 -0.0876102 0.004257089 0.035474252 -0.080647916 -0.3520504 -0.11877081 -0.21509103 -0.03013847 -0.061744664 0.24159975 0.23893055 0.03270489 0.06408441 -0.03664937 0.118709296 -0.17606452 -0.2053832 -0.056289244 0.09260586 -0.1861833 0.05651449 -0.079028465 -0.23394413 0.034868475 -0.016288674 -0.18094777 -0.21903999 0.2588467 0.28501287 0.11288599 -0.011340166 0.15961666 0.065456875 -0.10980433 0.01415929 -0.14530677 -0.20730685 0.10794731 -0.020443775 -0.32631034 -0.25309566 -0.1670054 -0.2562229 0.18288113 -0.14191945 0.114357375 0.37111843 0.18084206 -0.04901374 0.0792392 0.15471472 -0.046964634 -0.31762573 0.0407388 0.10202401 0.17626059 -0.028325627 0.2783165 0.016869027 -0.055126995
char -0.26417783 -0.17722721 -0.0976205 -0.27329943 0.17676991 -0.066639684 -0.003427386 0.19521946 0.07519323 0.060662553 -0.199851 -0.20105416 0.11887628 0.039803583 0.11150414 -0.10810396 -0.052121855 -0.0074370382 -0.29476637 0.016703 0.30972987 -0.15341723 0.05096575 -0.14591959 0.27845755 -0.13408566 0.02372983 0.174129 -0.05364555 -0.07254133 -0.19818242 -0.050455693 -0.045820322 0.08435013 0.39684418 -0.048991602 -0.07560494 -0.19467041 -0.14382502 0.47853345 0.06845451 0.19281411 0.1400763 0.2085962 -0.028126126 -0.25871322 -0.12432734 -0.10910702 0.22980198 -0.12041285 -0.0935 -0.070824444 0.21793452 0.08581814 0.12869096 0.041602556 -0.21348487 -0.18475378 -0.12051731 0.0066381525 0.18448906 0.07968794 -0.008086127 -0.13631831 -0.13800915 -0.038998406 0.11709908 -0.14994799 -0.21960299 -0.16730908 -0.20488489 0.06583549 0.055382725 0.12560116 -0.16908409 -0.21538024 0.30537012 -0.11965722 0.11909847 -0.31099722 -0.013190169 0.044119515 0.08737196 0.094681665 -0.18130098 0.23811552 0.21819112 0.117965356 -0.0036224807 -0.246291 -0.19720045 0.08627269 -0.043048367 0.12353567 -0.067568764 -0.03577795 0.2860343 -0.1296594 0.14730607 -0.090016216 0.05426427 0.49482763 -0.000810144 0.23183344 0.19110271 0.00199057 0.061386652 -0.08693537 -0.10549004 0.0937354 -0.063903034 0.2683112 -0.15322094 0.010514755 -0.13260259 -0.10285507 0.21296687 -0.18112779 0.37385732 0.09017826 0.07399822 0.11084273 0.02042948 0.043253995 -0.032042354 0.3474859 -0.20662288 -0.27985525 0.16463262 0.07036141 0.25696924 -0.39480692 -0.03915613 -0.25376353 0.18432538 -0.0013114935 -0.35945708 0.41767916 0.12537 0.03277563 0.044802405 0.011402486 -0.09850691 0.22697125 -0.042517066 0.27284062 -0.03360698 0.031693276 -0.2132997 0.02470182 0.4150324 0.1582996 0.28631052 0.022762844 -0.049898166 -0.054312013 -0.24795705 0.0049094395 0.23695675 -0.21437179 -0.10658827 0.010887937 -0.17832804 0.07753654 0.26331177 -0.210661 0.117372066 -0.045885976 -0.053556502 0.085505396 0.24927354 0.40510133 0.024094585 -0.00022918363 -0.1113375 0.0811728 -0.17526151 0.08290039 -0.039833147 0.14228697 0.09535321 0.15656178 0.07520459 0.03657401 0.10596307 0.12584764 0.256893 0.22202304 0.14501211 -0.04401144 0.003869997 -0.08125013 -0.4546409 -0.056996305 -0.05238535 0.052096993 0.09052201 0.22961898 0.082432434 0.09659236 -0.18466493 -0.0015772254 0.15719597 0.12642314 0.14196375 0.19260949 -0.027176902 0.06930497 -0.025480662 -0.09621173 0.12097678 0.01853231 0.06502212 0.15321313 -0.04277847 -0.19877243 -0.052479044 -0.15499245 0.30930886 -0.048078276 0.19822617 0.0984207 0.08163633 0.11717626 -0.010117297 0.05476616 -0.15831292 0.07639127 0.06953614 -0.05577705 0.032383025 -0.01161662 0.07420543 -0.21609598 -0.18991898 -0.06394678 0.043165263 0.09997402 0.4816349 -0.22676446 -0.4933385 -0.18012787 -0.2007923 -0.09126802 0.04579263 0.06908969 -0.08978279 0.24912122 -0.32569718 0.46362716 0.0016047583 -0.056549437 -0.16361652 -0.04007161 0.18954286 0.032492228 0.35877174 0.08005101 0.06651865 -0.13012552 -0.22256187 0.01724788 -0.14459634 -0.035174657 0.14877002 0.10997795 0.09364836 -0.20369962 0.33079743 -0.004010119 -0.13743758 0.45372364 -0.23262359 -0.44481018 0.13474715 0.0028983504 0.058797 -0.49362665 0.072804786 0.20498358 -0.06284493 -0.0884299 0.22962825 -0.046887446 -0.08911962 0.030258058 0.23659246 -0.14824498 -0.17277202 0.012997862 -0.15161917 -0.24455577 0.025905399 0.05164798 0.3003186 0.1693066 0.11845458 0.21143515 -0.18425216 0.18958426
FUNC2 0.10892228 0.04095745 -0.1329342 -0.14202479 -0.040449023 -0.011086467 -0.13233398 -0.13603131 -0.22540447 0.18758705 0.06475369 0.075303815 0.05252698 0.10611386 0.14934984 -0.20972371 0.26355296 -0.0012496203 0.05675634 -0.20171289 0.005845231 -0.1812857 -0.060999975 -0.015587368 -0.027544653 -0.031660695 -0.046365272 -0.055594116 0.016175834 0.0917869 -0.022934176 0.1220281 0.02756185 0.2216539 0.016884763 0.0016604168 0.10307659 -0.12659214 -0.094370335 0.05695212 -0.09354143 -0.05848267 0.08879777 0.04341895 -0.19992204 -0.018803537 -0.14347224 -0.10819034 0.046179842 0.13897648 -0.15342268 -0.075460225 -0.099410295 -0.0060587893 0.013830374 -0.092671156 -0.09695428 -0.12355289 -0.08882964 -0.15262595 0.18063256 -5.2508094e-05 0.023851417 -0.104211144 -0.11126159 0.065348364 0.09090266 -0.2299064 -0.13111107 -0.11877503 -0.009598487 0.041101042 -0.044298727 0.15107845 0.118295185 0.038444214 -0.18603638 0.048940074 0.021498578 0.009265049 0.0065477714 -0.0102915 0.043209706 0.0409719 0.12875883 -0.16004393 -0.02195596 -0.10025261 0.021435715 0.15448058 -0.13623427 -0.10833857 -0.15212983 0.12690288 0.03967675 0.13524877 0.008418821 -0.048216965 0.0031801779 -0.002388309 -0.11521442 -0.026046202 -0.029193021 -0.19525313 -0.08077227 -0.0029785053 -0.08729804 0.022440607 0.109824866 0.116342 -0.102612644 0.12334903 0.14053278 -0.120033145 0.0729035 -0.1731506 0.09126973 -0.065851495 -0.023803039 -0.1843599 0.033514768 0.020996131 -0.020494474 0.09289599 -0.105804384 0.1582835 -0.032252055 0.037167314 0.09892755 0.18159196 0.25400347 0.00519192 0.083643265 0.022240693 0.052689258 -0.22575966 -0.16134362 0.07128461 -0.012969114 0.0317287 -0.058454446 -0.0049379435 0.04578306 0.119321875 0.067175135 0.17596635 -0.082552075 0.15077113 0.10631976 0.06116995 0.0252793 -0.021421123 0.19105121 0.07957168 0.0752602 -0.037419986 -0.048424464 0.0067464258 0.32489753 0.046395965 -0.07100924 -0.10727304 0.0125525845 0.01680751 -0.03253389 -0.08450477 -0.19925535 -0.07210503 0.08319681 0.08107244 0.20445555 -0.015957816 0.06939604 0.0019731978 0.00974729 0.04563852 0.14523934 -0.095263 0.0080013005 -0.17451815 -0.07312898 -0.065818086 -0.06304389 -0.09265702 -0.0908571 0.1593308 0.07600177 0.025567727 -0.016467886 0.053739488 0.15914863 0.04415212 -0.15872106 -0.023019347 0.18073513 -0.021901453 0.18085472 -0.044156015 0.002241735 -0.13486297 0.056397196 0.18500982 -0.052953236 0.2676364 -0.013670157 -0.0063416013 -0.23211932 0.14254391 0.12186505 -0.05975454 -0.06161708 -0.020212201 0.1354553 -0.02934192 -0.058445543 0.10430655 -0.09458829 -0.123698905 0.01165351 -0.027502043 -0.0010710927 -0.06439994 -0.05476211 -0.087254174 0.08146479 -0.01530511 -0.0068094083 -0.0008307594 -0.10670912 -0.05002956 0.03838966 -0.07825461 -0.05452158 -0.20673218 -0.2685627 0.07055072 -0.122331075 0.12418477 -0.07099984 0.14963414 0.1313233 0.12142917 -0.16264765 -0.06438643 -0.05617528 -0.08623783 -0.015963336 0.21117339 -0.07728182 -0.20925193 -0.0989066 -0.122103885 0.075811744 0.052273646 -0.05387235 -0.0068331477 0.069259 0.16313979 0.01031971 0.06553779 0.04012182 -0.22763368 -0.160028 0.1019963 0.101623535 0.006004885 -0.053744327 0.037442766 0.16975842 0.046776015 -0.040455993 -0.025851792 -0.02409145 -0.010718906 0.18916446 -0.039604194 -0.0064508645 -0.036372915 0.03366396 0.012167792 0.15951867 0.031126507 0.10541543 -0.100028954 -0.008136198 0.016016353 0.14928868 0.085134014 0.095980965 0.17970021 -0.03786672 -0.16604717 0.06278453 0.112456866 0.025393775 0.16957824 -0.049449366 0.28629422 -0.16624019 -0.08017913
static 0.16300666 0.08450035 0.14941439 0.2506639 0.025748048 -0.2128203 -0.1514661 -0.2823719 -0.15577464 -0.22655305 0.21151225 0.15870929 0.051206294 0.084491275 0.00054781215 -0.022667926 0.08864356 0.18004993 -0.105526045 -0.062169887 -0.12871937 -0.14684935 0.11268112 -0.07230524 0.35590222 0.0789937 0.093467966 -0.1684601 0.20843512 0.128913 -0.02295021 0.1566931 0.213358 -0.081227645 0.19243334 -0.05230567 0.18292978 -0.02350399 0.10624359 0.17004785 0.17668447 0.4016682 0.1743073 -0.050884083 -0.3132421 -0.058781166 -0.260159 0.06641292 -0.04686228 0.037750985 -0.028119085 0.2346043 -0.0569433 -0.079454914 0.12798868 -0.15594925 0.07053708 0.24110678 -0.30284745 0.10294913 0.22485717 -0.33229756 0.01045026 -0.3438544 -0.14301638 -0.105867185 -0.022357324 0.09911874 -0.13726218 0.02738973 -0.12923877 0.07751915 -0.0028856373 -0.14816886 0.06719501 0.050019242 -0.42968142 -0.03691813 -0.08295556 0.05717159 -0.03581292 0.20844 0.118148156 0.023589514 0.27170286 -0.26675653 0.05209066 0.055439632 0.19257244 0.18612227 0.25623256 0.041514907 -0.05411173 0.08776955 0.0032533868 -0.18487798 0.04201576 0.18292779 -0.17997178 0.07216858 -0.042710315 -0.11856752 -0.235641 -0.30934218 -0.06299871 -0.11454232 -0.109982274 0.11009429 -0.27911425 -0.20878118 -0.21562806 0.29887915 0.12446028 -0.11396526 0.054014202 0.14683387 0.19791435 -0.33636445 0.16130865 -0.20864369 -0.15782152 0.19974937 -0.1773882 0.17399575 0.02107276 -0.028433017 0.09882133 0.080657244 -0.0920383 0.048401423 0.15142338 -0.0124603 0.060664896 -0.011459692 -0.0016161993 -0.109702535 0.12244656 0.21995378 -0.074743554 0.08415661 -0.06671912 -0.031008208 0.0077640885 0.10224176 -0.17187133 0.22654742 0.16790225 0.21144712 -0.1895597 0.13351467 0.16619515 0.0338573 0.2013481 0.3357985 -0.0331378 0.014529844 0.05830468 -0.035427034 0.052467566 -0.1371364 0.03632041 -0.06807857 0.24742997 -0.03474423 -0.117672555 -0.33940312 -0.3000028 0.105530076 0.004610185 0.09762665 0.17173418 0.04321127 0.23154002 -0.0049959137 0.1013461 0.09566049 -0.057002325 -0.042234603 -0.017091293 -0.20409638 -0.029209817 0.15845609 -0.014096133 0.086102955 -0.099970095 -0.036535647 0.22619398 -0.09254813 -0.13595732 0.10410655 0.3963723 -0.012723302 -0.31144884 -0.21312405 0.20411007 -0.16575515 -0.11310343 0.035084363 -0.18960491 -0.17799623 0.19068712 -0.057125434 -0.18437947 0.05694626 0.07389993 0.10538469 -0.035732277 0.23256905 0.26206 -0.076740116 -0.25301623 0.014404666 0.2254725 0.17349333 -0.1324844 -0.0018826204 0.076367766 -0.18741685 0.15232368 -0.060539708 -0.075433396 -0.12623926 -0.14645757 -0.114399664 0.15944989 -0.08553371 -0.088003926 -0.12748738 -0.092359036 0.022427822 0.08080553 -0.23235813 0.0051295133 -0.21239236 0.0039083073 0.034271028 0.12201394 0.13843931 0.020802174 -0.19385298 -0.27099937 0.31266436 0.14280395 0.063189074 -0.22892816 -0.08987297 0.12626144 -0.04459271 -0.29475588 -0.33300394 0.08159113 -0.17211498 0.10215087 0.2586576 -0.10923462 0.069633916 0.19278571 0.10834287 0.036869895 0.13913345 0.18349618 -0.16840346 -0.09605271 0.29533225 0.1120634 -0.06388049 0.0786209 0.33605042 0.11086753 0.1672295 0.008808621 0.118356004 -0.080840446 0.17453644 0.09173724 -0.12247351 0.08060365 -0.14030382 0.00063967606 0.28706384 0.03890234 0.06767791 0.11321513 -0.38791615 0.09771925 0.056886684 -0.021804137 -0.3141942 0.2753059 0.00722154 0.1377467 -0.16371949 0.0854501 -0.06894123 -0.16242146 0.2099818 -0.14198847 0.27134982 -0.22073798 -0.04637233
VAR5 -0.16944022 0.10185976 -0.07877554 -0.155345 0.34778675 -0.058207072 -0.078333065 0.0034919719 0.058759253 -0.08172802 -0.14255624 0.06297473 0.2654176 0.19195415 0.052069165 -0.19837232 0.22635105 -0.0060892906 -0.1586762 -0.20323063 0.0006788002 -0.097080186 0.084876224 -0.08427377 0.14124174 0.25112173 0.051825542 0.052455354 -0.10007048 0.02542852 0.15695983 -0.026376734 -0.29287815 -0.014359046 -0.2463912 -0.07458749 0.05755067 -0.077456735 -0.08714296 -0.12089324 0.10598404 -0.03537894 0.0965745 0.039386135 -0.2100016 0.06894555 0.06079052 -0.05666095 0.40307748 0.12749833 0.38424265 0.17438476 0.10709421 0.097239055 0.09517092 -0.13182995 0.048248548 -0.2616627 -0.18512398 -0.091736965 0.19021557 0.3508853 -0.026236137 -0.09700655 0.12299672 0.08581851 0.37832952 -0.47695196 -0.11750993 0.04995681 -0.061634444 0.08154859 -0.23426232 -0.028309375 0.14917193 -0.1455041 0.123442 0.16426064 0.2722619 -0.08121971 -0.13032754 0.0023275642 0.007877352 0.0303417 0.013246726 0.22779815 -0.14471442 0.005137725 -0.1238301 0.21040495 -0.07414141 -0.02733109 -0.076335154 -0.22196926 -0.34772134 -0.037817113 0.020019457 -0.3880352 -0.09180475 -0.002533166 -0.15107213 -0.014562517 0.0062832143 -0.11439522 0.06563488 0.1977335 -0.02983859 -0.040962603 -0.18663096 0.2865879 0.17468692 -0.07206916 0.02201329 -0.08565107 -0.047602363 -0.14600548 0.14786956 0.13215621 0.3145009 0.07338664 -0.06729645 0.25924966 -0.060944274 0.12529585 -0.13264394 -0.09171369 -0.075926974 -0.042831797 0.093971774 -0.04118052 0.06750998 -0.108298495 -0.25529435 -0.22768152 0.06523758 -0.01174784 -0.048074078 0.058165032 -0.03649533 0.1436013 -0.1653412 -0.35030994 -0.25589243 0.045952104 0.050515898 0.051340196 -0.1666018 0.052857358 0.103838675 0.35880345 0.11615096 0.13473432 -0.12751928 -0.22229373 0.08765335 0.13508207 0.08684312 0.0383341 0.3301158 -0.058554146 0.24229601 0.21451586 0.04236757 0.07464118 0.047878023 0.10224183 0.042033367 -0.15226063 0.12260308 -0.24903543 -0.013120958 0.037081696 0.02963601 0.2204249 -0.017308293 -0.19060394 -0.07242165 -0.044286482 -0.043063648 -0.02991655 0.0066804485 -0.101612635 0.13564186 -0.15801407 0.11851016 -0.26207548 -0.075830676 0.0790821 -0.0070520644 0.28754196 -0.110216126 0.030662445 -0.083605506 0.036959063 -0.13365313 -0.14995104 -0.024439812 0.047319 -0.09440115 0.032107357 -0.23400077 0.06895658 0.121159926 0.044686973 -0.16433726 0.1585334 -0.19991069 0.14257939 -0.03580951 0.18619572 0.019278489 0.018219534 -0.081888825 -0.13320778 0.13110062 0.043685574 -0.19198965 0.031730667 0.2056355 0.019758882 -0.26836318 -0.18399896 0.06748443 -0.08475388 -0.19103771 -0.14713405 0.08127346 -0.28539422 -0.10823066 -0.22665046 -0.13830887 0.1407434 -0.11505345 -0.026113803 -0.20647654 -0.08491804 0.17035417 0.01730338 0.121115856 -0.13217011 -0.10630246 -0.06940574 0.016008072 -0.17394347 0.014897094 -0.16699648 -0.29306313 0.0796339 -0.029712753 0.27240753 -0.011847942 0.055302635 0.058547206 0.21620087 0.28848457 -0.020136075 0.06591842 -0.017638717 0.07126964 -0.06330329 -0.068456836 -0.16731702 -0.3060179 0.038119085 -0.15607442 0.11805538 -0.15445314 -0.06512293 -0.09930002 -0.102040395 0.09227369 0.07668279 -0.012073107 -0.13626403 0.18791986 0.07289777 -0.16824257 0.019610243 -0.049881957 -0.036965862 0.09714926 0.019166823 0.17081153 -0.059145574 0.17358716 0.129702 0.43699136 0.2412794 0.03548043 -0.042715337 0.19011043 -0.16188677 0.017166434 0.0770162 0.12809898 0.0013023374 0.18557118 0.049875483 0.20881084 0.17893016
